tree
version=v4
num_class=1
num_tree_per_iteration=1
label_index=0
max_feature_idx=29
objective=poisson
feature_names=home_matches_considered home_effective_sample_size home_win_rate home_draw_rate home_loss_rate home_points_per_match home_goals_for home_goals_against home_goal_difference home_clean_sheet_rate home_scoring_rate home_home_match_share home_sample_confidence away_matches_considered away_effective_sample_size away_win_rate away_draw_rate away_loss_rate away_points_per_match away_goals_for away_goals_against away_goal_difference away_clean_sheet_rate away_scoring_rate away_home_match_share away_sample_confidence delta_points_per_match delta_goal_difference match_year match_month
feature_infos=[1:19] [1:6.9922526492878614] [0:1] [0:1] [0:1] [0:3] [0:6.9582867734578588] [0:4.5173279086647504] [-4.0115519391098333:6.9464769349593221] [0:1] [0:1] [0:1] [0.10000000000000001:0.69922526492878612] [1:20] [1:6.9899360937387467] [0:1] [0:1] [0:1] [0:3] [0:4.0096267467740505] [0:6.9683657428701027] [-6.9643302446781696:3.4855598798389256] [0:1] [0:1] [0:1] [0.10000000000000001:0.69899360937387467] [-3:3] [-3.516365312496859:7.9541918930061293] [1974:2022] [6:12]
tree_sizes=1147 1193 1195 1300 1188 1080 1086 1093 1192 1184 1191 1083 1084 1088 1190 1202 1090 1190 1195 1090 1191 1201 1195 1193 1296 1281 1200 1097 1389 990 1098 1175 1302 1287 1292 1283 1100 1086 990 1297 1392 1196 1306 1088 1093 1177 987 1383 1290 1176

Tree=0
num_leaves=10
num_cat=0
split_feature=8 11 9 9 21 19 26 16 17
split_gain=3.45454 2.47825 1.3222 1.32091 1.82048 2.43938 1.77065 0.87665 1.06139
threshold=-0.9999999517720638 0.0040004991533393675 0.49855770524164389 0.66964806450709236 1.0014050213050529 2.1704773968670374 0.4711359454562683 0.0010000571251923571 0.33099198124334478
decision_type=2 2 2 2 2 2 2 2 2
left_child=-1 2 -2 4 7 -6 -5 -3 -9
right_child=1 3 -4 6 5 -7 -8 8 -10
leaf_value=0.18952798736872611 0.18816412442607627 0.16115963779985798 0.17530489439990984 0.17020970978716463 0.18732138544992818 0.16744205404622542 0.18503873586569933 0.16525122658716115 0.17675146101194583
leaf_weight=28.828459739685059 28.828459739685059 28.828459739685059 21.621344804763794 24.023716449737549 19.218973159790039 19.218973159790039 26.426088094711304 28.828459739685059 21.621344804763794
leaf_count=12 12 12 9 10 8 8 11 12 9
internal_value=0.176621 0.174912 0.182617 0.172565 0.170245 0.177291 0.177907 0.166795 0.170213
internal_weight=247.444 218.616 50.4498 168.166 117.716 38.4379 50.4498 79.2783 50.4498
internal_count=103 91 21 70 49 16 21 33 21
is_linear=0
shrinkage=1


Tree=1
num_leaves=10
num_cat=0
split_feature=8 11 9 26 26 13 9 10 9
split_gain=3.90079 1.4227 1.95816 3.24789 2.11026 1.52189 1.07903 0.347539 0.186043
threshold=-0.98802910099125063 0.0010021870815032879 0.66964806450709236 0.21909887706247691 0.32214450368647657 5.5000000000000009 0.50262490350026146 0.92777813029753331 0.19379135248462243
decision_type=2 2 2 2 2 2 2 2 2
left_child=-1 -2 4 -4 5 -3 8 -5 -6
right_child=1 2 3 7 6 -7 -8 -9 -10
leaf_value=0.011692594005567254 0.005342121545117047 0.0065431366951832128 -0.010994543704035187 0.012814938749122833 -0.011910104464549954 -0.0065181000858681552 -0.0044963757400964619 0.0046180579049992085 -0.019150610376552659
leaf_weight=36.448011875152588 31.474394798278809 23.961041927337646 19.111486196517944 19.266349315643311 21.369102001190186 33.514319181442261 23.833364248275757 19.348959445953369 19.044981002807617
leaf_count=15 13 10 8 8 9 14 10 8 8
internal_value=-0.000281001 -0.00239174 -0.00378151 0.00222147 -0.00665858 -0.000994505 -0.011617 0.00892152 -0.0156123
internal_weight=247.372 210.924 179.45 57.7268 121.723 57.4754 64.2474 38.6153 40.4141
internal_count=103 88 75 24 51 24 27 16 17
is_linear=0
shrinkage=0.04


Tree=2
num_leaves=10
num_cat=0
split_feature=11 11 27 16 7 24 24 20 18
split_gain=2.64785 1.68141 3.75691 2.06887 1.88733 1.81083 1.58384 0.496631 0.397485
threshold=0.0040004991533393675 0.66254719206957546 0.97969314010212216 0.22604969231027253 0.50998540251268676 0.65979625306841283 0.0029997488363780428 1.0072831397962914 2.0127742516914733
decision_type=2 2 2 2 2 2 2 2 2
left_child=6 3 -3 8 -4 -5 -1 -8 -2
right_child=1 2 4 5 -6 -7 7 -9 -10
leaf_value=-0.00052288130037975666 -0.0075857923648710961 0.012816700905781278 0.0020181683244611709 -0.0088994953525445251 -0.014997416512650566 0.0070960044279352067 0.0064879245021970443 0.016241392456304612 -0.014834820320245277
leaf_weight=29.17507529258728 33.214328527450562 29.057171106338501 21.707340002059937 19.012342929840088 18.803693771362305 26.426832675933838 19.458445310592651 19.606235980987549 26.134037494659424
leaf_count=12 14 12 9 8 8 11 8 8 11
internal_value=-0.000225321 -0.0028555 0.00191439 -0.00605426 -0.00586884 0.000292189 0.0064086 0.0116276 -0.010942
internal_weight=242.596 174.356 69.5682 104.788 40.511 45.4392 68.2398 39.0647 59.3484
internal_count=101 73 29 44 17 19 28 16 25
is_linear=0
shrinkage=0.04


Tree=3
num_leaves=11
num_cat=0
split_feature=4 21 19 19 9 4 19 21 24 15
split_gain=2.96682 2.69787 1.24366 3.99255 1.75326 1.62888 1.67732 0.866882 0.70762 0.489506
threshold=0.33746362648940559 -1.0000000180025095e-35 2.5679610533365618 1.9842439178808096 0.49527423459794068 0.0020015553973723151 0.99917678763114726 1.0014050213050529 0.99602607134560284 0.001461432837273899
decision_type=2 2 2 2 2 2 2 2 2 2
left_child=2 9 3 4 8 6 -6 -3 -1 -2
right_child=1 7 -4 -5 5 -7 -8 -9 -10 -11
leaf_value=-0.0066457235104694212 0.0086409717714181593 -0.007091671011884325 -0.011844903692323241 0.010418665591088642 -0.0045816156702560822 -0.010085745234889936 0.0098048718782892848 0.0046978856604399499 -0.017025560568096235 0.018218414821098178
leaf_weight=30.816497802734375 22.160784721374512 19.382308721542358 21.191279172897339 34.039628267288208 23.969093799591064 21.37962794303894 26.664756536483765 19.28444766998291 18.504415988922119 19.612787961959839
leaf_count=13 9 8 9 14 10 9 11 8 8 8
internal_value=4.26838e-05 0.00640201 -0.00284183 -0.00155419 -0.00497491 -0.000916152 0.00293815 -0.00112477 -0.0107521 0.0133945
internal_weight=257.006 80.4403 176.565 155.374 121.334 72.0135 50.6339 38.6668 49.3209 41.7736
internal_count=107 33 74 65 51 30 21 16 21 17
is_linear=0
shrinkage=0.04


Tree=4
num_leaves=10
num_cat=0
split_feature=8 7 19 19 0 13 8 11 11
split_gain=2.17941 1.54804 1.60099 2.27369 1.56394 0.977942 1.07515 1.89801 0.796988
threshold=-0.98802910099125063 1.5143454047385652 2.5679610533365618 1.9973036488213769 10.500000000000002 3.5000000000000004 1.1859480347641054 0.32693629404279179 0.50408547021784422
decision_type=2 2 2 2 2 2 2 2 2
left_child=-1 2 3 4 5 6 7 -2 -7
right_child=1 -3 -4 -5 -6 8 -8 -9 -10
leaf_value=0.0086336207275017497 0.0024482069790730254 -0.01292058279575607 -0.010167632918706506 0.011001429409389883 -0.010914126456615266 -0.0011960605801121559 0.0046182982357140271 -0.014205998703453382 0.0087328606695022699
leaf_weight=34.799524307250977 19.486523866653442 18.790649890899658 25.689922332763672 26.907615184783936 23.404890775680542 21.674098968505859 19.348764657974243 23.173663139343262 29.081887006759644
leaf_count=14 8 8 11 11 10 9 8 10 12
internal_value=-0.00053549 -0.00210908 -0.000980433 0.000469047 -0.00161555 0.000318753 -0.00300292 -0.0065657 0.00444461
internal_weight=242.358 207.558 188.767 163.077 136.17 112.765 62.009 42.6602 50.756
internal_count=101 87 79 68 57 47 26 18 21
is_linear=0
shrinkage=0.04


Tree=5
num_leaves=9
num_cat=0
split_feature=11 13 13 1 16 9 6 10
split_gain=2.89424 2.26141 1.96101 2.08957 1.62204 2.12349 1.79684 1.67851
threshold=0.0010021870815032879 2.5000000000000004 10.500000000000002 1.0120798310629049 0.0010000571251923571 0.6664825359555907 1.5074109812451633 0.77461204643940851
decision_type=2 2 2 2 2 2 2 2
left_child=1 -1 3 -2 6 7 -5 -6
right_child=2 -3 -4 4 5 -7 -8 -9
leaf_value=0.0026243885801173444 0.0076833150534646672 0.019365960801851708 0.010204224124537704 -0.017794178228427524 0.0017975122424807104 0.01010899555355624 -0.0036589076500569092 -0.01101060532151367
leaf_weight=37.11736011505127 24.400660514831543 20.044088363647461 19.652289390563965 25.56360912322998 31.166779279708862 19.716317415237427 34.91803503036499 32.702090978622437
leaf_count=15 10 8 8 11 13 8 15 14
internal_value=0.000829509 0.00868134 -0.0015518 -0.00297299 -0.00482586 -0.00114511 -0.00979593 -0.00473294
internal_weight=245.281 57.1614 188.12 168.467 144.067 83.5852 60.4816 63.8689
internal_count=102 23 79 71 61 35 26 27
is_linear=0
shrinkage=0.04


Tree=6
num_leaves=9
num_cat=0
split_feature=11 13 20 20 2 19 10 3
split_gain=2.16181 2.70099 2.48982 1.89278 2.51429 1.78207 1.28657 0.201553
threshold=0.0010021870815032879 2.5000000000000004 1.6612478719377581 0.99976072939420801 0.75148523198799644 1.5043599095960321 0.9979889258553003 0.18183226441693104
decision_type=2 2 2 2 2 2 2 2
left_child=1 -1 3 5 7 6 -2 -5
right_child=2 -3 -4 4 -6 -7 -8 -9
leaf_value=0.00047626914629652885 0.0018787217108520919 0.018552179111944921 0.0075803072066910069 -0.0099394997590342791 0.00088053507897126963 0.0076648753550292801 -0.01174838550977363 -0.016516677529999961
leaf_weight=37.157015562057495 21.849770784378052 20.479286670684814 36.154350757598877 21.057193994522095 28.710048198699951 31.682594537734985 20.933288097381592 27.566673278808594
leaf_count=15 9 8 15 9 12 13 9 12
internal_value=0.000315901 0.00707211 -0.00174794 -0.00401352 -0.00837829 0.000491666 -0.00475515 -0.0138799
internal_weight=245.59 57.6363 187.954 151.8 77.3339 74.4657 42.7831 48.6239
internal_count=102 23 79 64 33 31 18 21
is_linear=0
shrinkage=0.04


Tree=7
num_leaves=9
num_cat=0
split_feature=11 11 27 27 24 22 11 20
split_gain=2.76513 2.46007 2.51882 2.1983 1.97465 1.29509 0.754529 0.524016
threshold=0.0040004991533393675 0.62646249531894893 1.0000000180025095e-35 1.0080419536334315 0.0029997488363780428 0.50083662365646275 0.49979382357728946 1.0057419508594294
decision_type=2 2 2 2 2 2 2 2
left_child=4 5 -3 -4 -1 6 -2 -6
right_child=1 2 3 -5 7 -7 -8 -9
leaf_value=-0.0010878458277962075 -0.0061628312359313202 0.011702137343737925 -0.012417764134567171 0.0032456696004234502 0.0060075240506386116 6.7263450719220704e-05 -0.015412029523897907 0.01531627323883292
leaf_weight=34.328867197036743 32.632295846939087 27.56641149520874 22.860182523727417 36.10602879524231 19.829055547714233 23.881095170974731 29.587666273117065 25.820068120956421
leaf_count=14 14 11 10 15 8 10 13 10
internal_value=-5.42438e-05 -0.00291736 0.00180584 -0.00281286 0.00605587 -0.00769345 -0.0107127 0.0114683
internal_weight=252.612 172.634 86.5326 58.9662 79.978 86.1011 62.22 45.6491
internal_count=105 73 36 25 32 37 27 18
is_linear=0
shrinkage=0.04


Tree=8
num_leaves=10
num_cat=0
split_feature=11 24 20 13 4 11 5 4 13
split_gain=2.34604 1.79498 1.44585 1.16789 1.653 1.8019 1.37924 0.896362 0.633052
threshold=0.0040004991533393675 0.0029997488363780428 1.6612478719377581 10.500000000000002 0.00026476376144202347 0.66254719206957546 1.9950097999560334 0.50431204721068679 3.5000000000000004
decision_type=2 2 2 2 2 2 2 2 2
left_child=1 -1 3 4 5 -2 7 -6 -3
right_child=2 8 -4 -5 6 -7 -8 -9 -10
leaf_value=-0.0010677036658804527 -0.0090042012189266215 0.0056187758885353992 0.0054992064787751076 0.004275600594568536 0.001098257870277082 0.0058130905947507824 -0.016710008113582569 -0.010937294682676688 0.016155984559430434
leaf_weight=34.291543006896973 22.883991956710815 20.139189481735229 26.544987440109253 19.63055419921875 18.865427732467651 29.330063581466675 29.287400007247925 18.985706806182861 20.764423370361328
leaf_count=14 10 8 11 8 8 12 13 8 8
internal_value=-0.000238724 0.00557985 -0.00291489 -0.00456456 -0.0060637 -0.000628851 -0.0101954 -0.00489823 0.011195
internal_weight=240.723 75.1952 165.528 138.983 119.353 52.2141 67.1385 37.8511 40.9036
internal_count=100 30 70 59 51 22 29 16 16
is_linear=0
shrinkage=0.04


Tree=9
num_leaves=10
num_cat=0
split_feature=6 28 0 28 6 23 7 18 26
split_gain=2.65091 2.01942 1.68208 0.925844 1.88446 1.555 0.935139 0.683275 0.456314
threshold=0.67391993895297075 2020.0000000000002 9.5000000000000018 2020.0000000000002 1.6754401048380132 0.9999999921862992 0.50529467147097118 1.0199558959534829 1.3397715599086311
decision_type=2 2 2 2 2 2 2 2 2
left_child=1 -1 3 4 6 7 -2 -5 -6
right_child=2 -3 -4 5 8 -7 -8 -9 -10
leaf_value=6.2739123038259496e-05 0.0024932319679735046 0.017563500279760079 -0.0091852909737657681 -0.0029940805718159731 -0.0051657369081148661 -0.012785017374032204 0.014742001985444612 0.0064296389967197299 0.0025200078802641206
leaf_weight=19.871807098388672 19.446272373199463 23.170980215072632 34.518493413925171 31.151029348373413 30.384591579437256 18.421197652816772 22.789179563522339 19.502687931060791 19.422411680221558
leaf_count=8 8 9 15 13 13 8 9 8 8
internal_value=0.000731786 0.00966919 -0.00123382 0.000468138 0.00310909 -0.0029905 0.00929111 0.000583424 -0.00209388
internal_weight=238.679 43.0428 195.636 161.117 92.0425 69.0749 42.2355 50.6537 49.807
internal_count=99 17 82 67 38 29 17 21 21
is_linear=0
shrinkage=0.04


Tree=10
num_leaves=10
num_cat=0
split_feature=11 24 20 13 13 24 0 22 10
split_gain=2.417 2.18782 1.54132 2.26896 1.16789 1.13172 1.14618 0.5924 0.305737
threshold=0.0040004991533393675 0.0029997488363780428 1.6612478719377581 10.500000000000002 6.5000000000000009 0.99950088731331455 4.5000000000000009 0.4954183635158913 0.9979889258553003
decision_type=2 2 2 2 2 2 2 2 2
left_child=1 -1 3 4 5 6 -2 -8 -3
right_child=2 8 -4 -5 -6 -7 7 -9 -10
leaf_value=-0.0021437548665690117 0.0057718817958206069 0.015127197491537769 0.0046958108258414186 0.0067206018456120956 -0.013980446353919885 -0.011559064356186312 -0.010675463887070529 -0.00039196985065018412 0.0075910860529855859
leaf_weight=31.889548540115356 21.576271533966064 21.389635801315308 33.944563150405884 22.293085336685181 29.065310716629028 25.261409282684326 18.430418014526367 18.70410943031311 23.02735424041748
leaf_count=13 9 8 14 9 13 11 8 8 9
internal_value=-0.000138534 0.00573248 -0.00281774 -0.00474214 -0.00705767 -0.00454557 -0.00138821 -0.00567613 0.0114373
internal_weight=245.582 76.3065 169.275 135.331 113.038 83.9722 58.7108 37.1345 44.417
internal_count=102 30 72 58 49 36 25 16 17
is_linear=0
shrinkage=0.04


Tree=11
num_leaves=9
num_cat=0
split_feature=8 24 11 1 3 1 4 22
split_gain=2.5374 1.17886 1.72547 2.0291 1.18599 1.10988 0.959334 0.444412
threshold=-0.9999999517720638 0.77363482778967063 0.66254719206957546 2.011711939157784 0.0011464883675665314 1.0246748100760295 0.20310914112740394 0.50083662365646275
decision_type=2 2 2 2 2 2 2 2
left_child=-1 2 3 5 -3 -2 -5 -6
right_child=1 4 -4 6 7 -7 -8 -9
leaf_value=0.0087432274058558794 -0.0017349339896933589 0.00018392881543337689 0.0082210394544188475 -0.01262931960159511 -0.015268431781395548 0.010366103410763198 -0.0024311984207335035 -0.00624535811677541
leaf_weight=38.859103918075562 26.74617600440979 23.73921012878418 29.620997905731201 29.07270884513855 19.942242622375488 20.867583513259888 32.423627614974976 21.083972930908203
leaf_count=15 11 10 12 13 9 8 14 9
internal_value=-0.000535337 -0.00234384 -0.000227484 -0.0025846 -0.00677943 0.00353804 -0.0073799 -0.0108587
internal_weight=242.356 203.497 138.731 109.11 64.7654 47.6138 61.4963 41.0262
internal_count=101 86 58 46 28 19 27 18
is_linear=0
shrinkage=0.04


Tree=12
num_leaves=9
num_cat=0
split_feature=24 3 16 8 27 19 24 1
split_gain=1.83453 2.15892 1.7109 1.8293 1.4728 1.71733 1.15031 1.08535
threshold=0.99602607134560284 0.0019639796597316623 0.66321501138669026 -0.98802910099125063 -0.50533188848621513 1.6746210718877299 0.33955338067248481 3.0152688055689092
decision_type=2 2 2 2 2 2 2 2
left_child=2 -2 3 -1 -5 6 -6 -8
right_child=1 -3 -4 4 5 -7 7 -9
leaf_value=0.012717038902289042 0.00023927976791327199 -0.015671641428464576 -0.0076714033403783941 -0.0068894890948211955 -0.0050652387798854736 0.011752862394904702 0.010515734126416166 -0.0022088015541177975
leaf_weight=29.147585391998291 33.621385812759399 21.908597469329834 23.608553886413574 25.238683700561523 32.877883195877075 30.051724433898926 23.395724534988403 18.414702415466309
leaf_count=11 14 10 10 11 14 12 9 8
internal_value=0.000264894 -0.0060506 0.00221717 0.00372876 0.00164149 0.00375813 0.000431388 0.00485701
internal_weight=238.265 55.53 182.735 159.126 129.979 104.74 74.6883 41.8104
internal_count=99 24 75 65 54 43 31 17
is_linear=0
shrinkage=0.04


Tree=13
num_leaves=9
num_cat=0
split_feature=11 24 21 19 0 9 4 27
split_gain=2.02993 1.70954 1.23177 2.37435 1.82452 2.48208 1.76283 0.619987
threshold=0.0040004991533393675 0.0029997488363780428 1.0014050213050529 2.2888999825025356 9.5000000000000018 0.6664825359555907 0.33746362648940559 1.4101329099471271
decision_type=2 2 2 2 2 2 2 2
left_child=1 -1 4 -4 5 6 7 -2
right_child=2 -3 3 -5 -6 -7 -8 -9
leaf_value=-0.0020592764157401091 -0.017174020634649925 0.010435239183356438 0.010313759733036802 -0.0058960146726763155 -0.013903414831997137 0.0076051817002508043 0.0011310310831360868 -0.0062064806221887635
leaf_weight=29.489195585250854 19.553497552871704 40.621688604354858 27.53217339515686 29.135564804077148 28.683185577392578 27.383906602859497 26.456261396408081 18.093612909317017
leaf_count=12 9 15 11 13 13 11 11 8
internal_value=-0.00057083 0.00514593 -0.00286802 0.0019309 -0.00516278 -0.00231825 -0.00664535 -0.0121582
internal_weight=246.949 70.1109 176.838 56.6677 120.17 91.4873 64.1034 37.6471
internal_count=103 27 76 24 52 39 28 17
is_linear=0
shrinkage=0.04


Tree=14
num_leaves=10
num_cat=0
split_feature=8 16 19 17 4 24 4 15 5
split_gain=2.33574 1.18249 1.67598 1.62212 2.09743 1.82189 1.36235 0.741948 0.169267
threshold=-0.9999999517720638 0.495438642677626 2.5679610533365618 0.58398952513227431 0.00026476376144202347 0.65979625306841283 0.20310914112740394 0.5026131089210516 1.4908380483516819
decision_type=2 2 2 2 2 2 2 2 2
left_child=-1 2 3 4 -2 8 -6 -8 -5
right_child=1 -3 -4 5 6 -7 7 -9 -10
leaf_value=0.0099372492655152821 0.013223188992535145 -0.0082584721962671182 -0.010212951582810905 0.0039173853670803208 -0.0077652044066839456 -0.013307752127980341 0.009511651006687015 -0.00066465835098857939 -0.0011630273060489215
leaf_weight=34.59760046005249 31.111941814422607 31.721769332885742 21.668030261993408 19.933785200119019 20.489200115203857 19.929932832717896 22.850816011428833 21.060342073440552 19.495936393737793
leaf_count=13 12 14 10 8 9 9 9 9 8
internal_value=0.000377978 -0.0012109 5.26067e-05 0.00154284 0.00477855 -0.00359316 0.000566855 0.00458836 0.0013221
internal_weight=242.859 208.262 176.54 154.872 95.5123 59.3597 64.4004 43.9112 39.4297
internal_count=101 88 74 64 39 25 27 18 16
is_linear=0
shrinkage=0.04


Tree=15
num_leaves=10
num_cat=0
split_feature=11 11 27 4 24 7 10 20 1
split_gain=1.47261 1.64277 2.41383 1.54759 1.35006 1.24008 1.06707 0.476415 0.399661
threshold=0.0040004991533393675 0.62646249531894893 1.0000000180025095e-35 0.20310914112740394 0.0029997488363780428 0.50998540251268676 0.50520392292741934 1.0072831397962914 2.9994619323321019
decision_type=2 2 2 2 2 2 2 2 2
left_child=4 3 -3 8 -1 -4 -5 -6 -2
right_child=1 2 5 6 7 -7 -8 -9 -10
leaf_value=-0.0011259086878940548 -0.0064046523443765883 0.012035888056547355 0.0027371885419719111 -0.0065046331362926119 0.0045572226995703822 -0.0088730906741397667 0.0067654086327348876 0.013447638914000679 -0.014359602195695239
leaf_weight=34.399617433547974 24.311476945877075 26.018816709518433 31.620018482208252 18.508600950241089 21.036365032196045 26.244595885276794 19.250469207763672 22.493321657180786 23.834362268447876
leaf_count=14 11 10 13 8 8 12 8 8 11
internal_value=0.000142948 -0.00192953 0.00201211 -0.00581408 0.00469286 -0.00249104 0.000156199 0.0093426 -0.0105321
internal_weight=247.718 169.788 83.8834 85.9049 77.9293 57.8646 37.7591 43.5297 48.1458
internal_count=103 73 35 38 30 25 16 16 22
is_linear=0
shrinkage=0.04


Tree=16
num_leaves=9
num_cat=0
split_feature=11 21 19 9 20 24 20 13
split_gain=2.0461 1.50497 2.05125 2.00627 2.42164 1.3275 0.566462 0.440696
threshold=0.0040004991533393675 1.0014050213050529 2.2888999825025356 0.6664825359555907 1.7167168986141219 0.0029997488363780428 0.99190959611073171 3.5000000000000004
decision_type=2 2 2 2 2 2 2 2
left_child=5 3 -3 4 6 -1 -2 -7
right_child=1 2 -4 -5 -6 7 -8 -9
leaf_value=-0.0011051027387015619 -0.0081639501791936041 0.008899470807440699 -0.0059052590468149802 0.0024044381131884817 0.0029197868732902532 0.0042179840187212244 -0.016973110263925308 0.012325908789232372
leaf_weight=34.360908031463623 24.623522996902466 33.082576036453247 26.289482235908508 33.896302461624146 19.07283091545105 21.339751482009888 31.998928070068359 28.265182971954346
leaf_count=14 11 13 12 14 8 8 15 10
internal_value=-0.00023692 -0.00278641 0.00228267 -0.00556685 -0.00918123 0.00483215 -0.0133173 0.00899466
internal_weight=252.929 168.964 59.3721 109.592 75.6953 83.9658 56.6225 49.6049
internal_count=105 73 25 48 34 32 26 18
is_linear=0
shrinkage=0.04


Tree=17
num_leaves=10
num_cat=0
split_feature=8 0 19 23 19 3 0 24 6
split_gain=1.83525 1.25136 1.54329 0.81844 0.779288 1.54309 0.734233 0.798091 0.470488
threshold=-0.9999999517720638 9.5000000000000018 2.5679610533365618 0.66679929513185043 1.9973036488213769 0.5031090926416556 4.5000000000000009 0.49517831868879819 1.6754401048380132
decision_type=2 2 2 2 2 2 2 2 2
left_child=-1 2 4 -3 5 6 7 -2 -8
right_child=1 3 -4 -5 -6 -7 8 -9 -10
leaf_value=0.0076993171849411282 -0.00085588921079458034 -0.014547314654574024 -0.010115020491246711 -0.0021092035220339192 0.0079734200396500369 -0.0078021963369041174 0.002669005466923629 0.009039653042164756 -0.005023140497017302
leaf_weight=40.349790096282959 19.172826528549194 17.169296383857727 21.445333480834961 18.308594226837158 22.70421028137207 30.502820253372192 24.6163330078125 35.687570333480835 24.69709312915802
leaf_count=15 8 8 10 8 9 13 10 14 11
internal_value=-5.6024e-05 -0.00154937 -0.000156688 -0.00835824 0.00120267 6.37921e-06 0.00235735 0.00553257 -0.00111482
internal_weight=254.654 214.304 178.826 35.4779 157.381 134.677 104.174 54.8604 49.3134
internal_count=106 91 75 16 65 56 43 22 21
is_linear=0
shrinkage=0.04


Tree=18
num_leaves=10
num_cat=0
split_feature=8 28 17 20 21 13 19 19 20
split_gain=1.73169 1.20422 1.26782 1.72492 2.01007 1.06546 0.888971 1.28841 0.548528
threshold=-0.98802910099125063 2020.0000000000002 0.003520728383988717 0.99976072939420801 -0.99157999670774233 3.5000000000000004 0.99917678763114726 2.0048133733870253 1.0120912966082873
decision_type=2 2 2 2 2 2 2 2 2
left_child=5 6 -3 -4 -5 -1 -2 8 -8
right_child=1 2 3 4 -6 -7 7 -9 -10
leaf_value=0.0016730094566490413 -0.0027891942717472706 -0.012166988396993414 0.0068340310740451719 0.001637018218664511 -0.013367586408540206 0.014044500853542441 0.013991196982684192 -0.0022134326279463217 0.0042038071874235337
leaf_weight=23.920570611953735 33.113938212394714 22.099029421806335 26.691056966781616 29.542733669281006 26.275919675827026 22.08858323097229 20.942625522613525 22.952248573303223 19.690604686737061
leaf_count=9 14 10 11 12 12 8 8 10 8
internal_value=0.000820904 -0.000766406 -0.00374742 -0.00138447 -0.00541115 0.00778559 0.00241997 0.0051958 0.00945429
internal_weight=247.317 201.308 104.609 82.5097 55.8187 46.0092 96.6994 63.5855 40.6332
internal_count=102 85 45 35 24 17 40 26 16
is_linear=0
shrinkage=0.04


Tree=19
num_leaves=9
num_cat=0
split_feature=11 20 21 7 19 24 4 13
split_gain=1.39536 1.24635 2.37525 1.90205 1.88355 1.15448 0.586529 0.413014
threshold=0.0040004991533393675 1.6612478719377581 1.0014050213050529 0.50433205746064302 2.2888999825025356 0.0029997488363780428 0.250186502406676 3.5000000000000004
decision_type=2 2 2 2 2 2 2 2
left_child=5 2 3 -2 -4 -1 -5 -7
right_child=1 -3 4 6 -6 7 -8 -9
leaf_value=-0.0011249534200988406 -5.0760577669466056e-05 0.004695006350548917 0.0083945802605391688 -0.017707280183932837 -0.005196258113680202 0.004055945703628174 -0.0082350345220697334 0.012222035462047762
leaf_weight=34.397838592529297 28.467939853668213 33.945691108703613 33.682601928710938 24.513175249099731 30.448860049247742 21.487701654434204 24.777104377746582 23.371623039245605
leaf_count=14 12 14 13 12 14 8 11 8
internal_value=-9.0019e-05 -0.00209085 -0.00375317 -0.00844056 0.00188964 0.00428403 -0.0131566 0.00848647
internal_weight=255.093 175.835 141.89 77.7582 64.1315 79.2572 49.2903 44.8593
internal_count=106 76 62 35 27 30 23 16
is_linear=0
shrinkage=0.04


Tree=20
num_leaves=10
num_cat=0
split_feature=15 16 4 19 1 26 14 29 7
split_gain=1.46175 1.47316 1.68799 2.12418 1.22549 0.763309 0.617462 0.565292 0.493303
threshold=0.91458765945958109 0.66321501138669026 0.20310914112740394 0.99917678763114726 2.9994619323321019 2.0048133733870253 2.9993285475090272 9.0000000000000018 0.73477267121898338
decision_type=2 2 2 2 2 2 2 2 2
left_child=1 2 3 5 -5 -1 7 -4 -2
right_child=8 -3 6 4 -6 -7 -8 -9 -10
leaf_value=-0.01162505658222302 -0.012392113965440342 -0.0068610063061788828 0.0044248498206867024 0.01011927042968192 -0.0013894866372428903 -0.0015002469139160318 0.0008389227784176696 0.012872841042292835 -0.0026985528236447382
leaf_weight=25.467769026756287 17.426162719726562 31.335009574890137 26.094398021697998 29.048113346099854 28.401908993721008 24.219687461853027 21.040164709091187 30.228369951248169 18.954380989074707
leaf_count=12 8 14 10 11 12 10 9 11 8
internal_value=-0.000181507 0.00105749 0.00243887 -0.000781474 0.0043977 -0.00683363 0.00692638 0.00910265 -0.00755525
internal_weight=252.216 215.835 184.5 107.137 57.45 49.6875 77.3629 56.3228 36.3805
internal_count=105 89 75 45 23 22 30 21 16
is_linear=0
shrinkage=0.04


Tree=21
num_leaves=10
num_cat=0
split_feature=11 11 27 23 7 24 13 4 1
split_gain=2.20488 1.37346 3.29768 1.35683 1.28309 1.20088 0.655245 0.598008 0.00541448
threshold=0.0040004991533393675 0.62646249531894893 1.0000000180025095e-35 0.49842554460249566 0.50998540251268676 0.0029997488363780428 3.5000000000000004 0.20310914112740394 3.9977462002203041
decision_type=2 2 2 2 2 2 2 2 2
left_child=5 3 -3 -2 -4 -1 -7 8 -5
right_child=1 2 4 7 -6 6 -8 -9 -10
leaf_value=-0.00058179506071391542 0.0033870095368186974 0.012772740266854194 0.0013390563270243364 -0.0098312223007659474 -0.0099593100638741393 0.0039252104905452487 0.013680599303052345 -0.0045718211956237735 -0.014419230613188165
leaf_weight=29.265745401382446 18.679510593414307 26.645715236663818 33.738075375556946 16.837361812591553 29.177774906158447 21.608539819717407 27.103487491607666 34.416687726974487 16.753595352172852
leaf_count=12 8 10 14 8 14 8 9 15 8
internal_value=0.000102833 -0.00235872 0.00107706 -0.00594013 -0.0038748 0.0056971 0.00951826 -0.0085664 -0.0124148
internal_weight=254.226 176.249 89.5616 86.6872 62.9159 77.9778 48.712 68.0076 33.591
internal_count=106 77 38 39 28 29 17 31 16
is_linear=0
shrinkage=0.04


Tree=22
num_leaves=10
num_cat=0
split_feature=27 11 11 4 27 16 0 7 11
split_gain=1.88935 1.72295 1.53406 2.30923 1.52465 1.02978 0.802746 0.767812 0.314389
threshold=1.602064145238949 0.0040004991533393675 0.66254719206957546 0.20310914112740394 0.75745402721432731 0.086177854170861587 4.5000000000000009 1.4925830973192702 0.50408547021784422
decision_type=2 2 2 2 2 2 2 2 2
left_child=1 7 3 8 -4 -5 -2 -1 -3
right_child=6 2 4 5 -6 -7 -8 -9 -10
leaf_value=0.012703073888502068 -0.0026895324706545831 -0.007726941533042278 0.0098792361380236251 -0.0055955696588401316 -0.0038953738448538168 0.0060198117277805987 -0.014396986328049676 0.0034357767515222925 -0.016612238453156514
leaf_weight=24.247272491455078 23.602398872375488 17.127175807952881 31.976318120956421 20.100991725921631 20.412506937980652 29.091820240020752 16.683385729789734 39.240941286087036 16.088380217552185
leaf_count=9 10 8 12 9 9 12 8 14 8
internal_value=7.17865e-05 0.00169718 -0.000839132 -0.00425664 0.00445045 0.00118454 -0.00775302 0.00710924 -0.0123318
internal_weight=238.571 198.285 134.797 82.4084 52.3888 49.1928 40.2858 63.4882 33.2156
internal_count=99 81 58 37 21 21 18 23 16
is_linear=0
shrinkage=0.04


Tree=23
num_leaves=10
num_cat=0
split_feature=8 0 19 19 16 29 16 24 17
split_gain=1.55659 1.0433 1.31345 1.01367 1.43008 1.13018 0.796841 1.03109 0.195187
threshold=-0.9999999517720638 9.5000000000000018 2.5679610533365618 1.9973036488213769 0.0003991583076997088 9.0000000000000018 0.495438642677626 0.49517831868879819 0.33099198124334478
decision_type=2 2 2 2 2 2 2 2 2
left_child=-1 2 3 4 5 -2 7 -6 -9
right_child=1 -3 -4 -5 6 -7 -8 8 -10
leaf_value=0.0067071709534248149 -0.0016965682777993635 -0.0088363047635202606 -0.01070451985071076 0.008540943012507381 -0.0028016114968996034 -0.014471218278264183 -0.0036266813410716003 0.0048605128012408063 0.011000487867428878
leaf_weight=38.864273548126221 33.294076085090637 29.782802104949951 18.490473866462708 20.832352161407471 19.071891307830811 16.919941663742065 24.993537545204163 20.772176742553711 21.724401712417603
leaf_count=14 14 14 9 8 8 8 11 8 8
internal_value=-0.000560618 -0.00196487 -0.000758352 0.000413386 -0.000821983 -0.00618018 0.00225797 0.00472124 0.00818374
internal_weight=244.746 205.882 176.099 157.608 136.776 50.214 86.562 61.5685 42.4966
internal_count=102 88 74 65 57 22 35 24 16
is_linear=0
shrinkage=0.04


Tree=24
num_leaves=11
num_cat=0
split_feature=20 22 26 10 0 20 17 2 3 1
split_gain=1.75736 2.09322 2.00258 1.5029 1.07957 0.969866 0.761052 0.734012 1.03548 1.3775
threshold=1.3534587918437897 0.49171133940114969 -0.13278236725519096 0.69218197484223598 4.5000000000000009 2.4045856687551841 0.33361986410258304 0.0010060514907879916 1.0000000180025095e-35 2.0117883653062676
decision_type=2 2 2 2 2 2 2 2 2 2
left_child=1 2 -1 -2 -4 -5 -6 -3 -9 -10
right_child=3 7 4 5 6 -7 -8 8 9 -11
leaf_value=-0.019058298696412092 0.012398054749324672 0.0077473686319605049 0.0024410574049370023 0.0058595458710402415 -0.0021423392171886213 -0.006319605464081072 -0.014292132797884801 0.005961829445199766 -0.011525010236587875 0.0025202604000137897
leaf_weight=16.804034471511841 28.20085597038269 24.342894315719604 26.666380524635315 23.056066036224365 18.343763470649719 18.248916983604431 16.35998809337616 26.060514688491821 20.35911750793457 22.996220111846924
leaf_count=8 10 9 11 9 8 8 8 10 9 10
internal_value=8.3723e-07 -0.00215257 -0.00697568 0.00536208 -0.00347535 0.000371776 -0.00810524 0.00184207 -0.000212194 -0.00404021
internal_weight=241.439 171.933 78.1742 69.5058 61.3701 41.305 34.7038 93.7587 69.4159 43.3553
internal_count=100 73 35 27 27 17 16 38 29 19
is_linear=0
shrinkage=0.04


Tree=25
num_leaves=11
num_cat=0
split_feature=11 13 13 16 24 20 11 8 13 13
split_gain=1.09984 1.53116 1.0925 2.02256 1.2745 1.20833 0.666507 0.541765 0.510214 0.282248
threshold=0.0010021870815032879 1.5000000000000002 1.5000000000000002 1.0000000180025095e-35 0.49517831868879819 0.37519390462249219 0.50384387185495516 1.0061102903217058 6.5000000000000009 3.5000000000000004
decision_type=2 2 2 2 2 2 2 2 2 2
left_child=1 -1 -2 7 -5 -6 -7 -4 -8 -3
right_child=2 9 3 4 5 6 8 -9 -10 -11
leaf_value=-0.0033405463144864055 0.0070127433678994731 0.0050309494889654053 -0.012691236513253309 -0.007738726993876721 -0.0058753416795745131 0 0.0031938207031533888 -0.0032839939810431211 0.012008043028616746 0.011859296654351578
leaf_weight=24.552052736282349 22.045326352119446 22.233328819274902 29.328006982803345 23.742419362068176 20.513027191162109 28.085395693778992 22.309836149215698 17.228711128234863 23.531902551651001 24.905513525009155
leaf_count=10 9 8 14 11 9 12 9 8 9 8
internal_value=0.000393065 0.00459856 -0.00120768 -0.00234983 0.000408574 0.00252892 0.00493845 -0.00936689 0.00788548 0.00880923
internal_weight=258.476 71.6909 186.785 164.739 118.183 94.4402 73.9271 46.5567 45.8417 47.1388
internal_count=107 26 81 72 50 39 30 22 18 16
is_linear=0
shrinkage=0.04


Tree=26
num_leaves=10
num_cat=0
split_feature=8 21 3 16 20 21 19 11 20
split_gain=1.3297 1.4848 1.3593 1.3563 1.11916 2.19502 1.63694 0.947798 0.108141
threshold=-0.98802910099125063 -0.0063027954918536098 0.00019591382291417336 1.0000000180025095e-35 0.99608634381144345 -0.99943251393833044 1.6746210718877299 0.6602334295734974 1.0096844755008172
decision_type=2 2 2 2 2 2 2 2 2
left_child=1 -1 3 -2 6 -6 -4 -7 -5
right_child=2 -3 4 8 5 7 -8 -9 -10
leaf_value=0.012609222802652005 -0.0036743622493219546 -0.0018054333415372667 -0.0070901722561764902 0.0095382702317818053 0.0014898097033882666 -0.017835004566262663 0.0067322012985707759 -0.0050491152443835046 0.0046722409053741231
leaf_weight=24.318796157836914 30.010234713554382 20.207284927368164 25.643069863319397 21.46920919418335 26.003340482711792 26.088199138641357 28.299174308776855 16.640989542007446 20.935406684875488
leaf_count=8 13 8 12 8 11 13 11 8 8
internal_value=-0.000148201 0.00603117 -0.00159081 0.00270993 -0.0041627 -0.00752916 8.30783e-05 -0.013064 0.00731156
internal_weight=239.616 44.5261 195.09 72.4149 122.675 68.7325 53.9422 42.7292 42.4046
internal_count=100 16 84 29 55 32 23 21 16
is_linear=0
shrinkage=0.04


Tree=27
num_leaves=9
num_cat=0
split_feature=8 11 3 20 16 3 16 9
split_gain=1.33095 0.947639 1.44931 1.59856 1.14294 0.957631 1.03174 0.653199
threshold=-0.9999999517720638 0.0040004991533393675 0.29207966059831786 0.99976072939420801 0.66321501138669026 0.1417585902596801 0.22604969231027253 0.49855770524164389
decision_type=2 2 2 2 2 2 2 2
left_child=-1 7 4 -4 5 6 -3 -2
right_child=1 2 3 -5 -6 -7 -8 -9
leaf_value=0.0062629245513298702 0.0068117739428852613 -0.0064677293922959121 -0.00062252685683246564 -0.015057489450549383 -0.0090969951208927542 0.0076873639959043 0.0037140159067677475 -0.0015750740255400469
leaf_weight=42.595658779144287 31.212307453155518 30.400381803512573 23.092038750648499 27.36805272102356 19.370278477668762 27.300730347633362 31.985803842544556 26.50801420211792
leaf_count=15 11 14 10 14 9 11 13 11
internal_value=-0.000142799 -0.00142869 -0.00302816 -0.00860104 -0.000385625 0.00149148 -0.00119585 0.00291097
internal_weight=259.833 217.238 159.517 50.4601 109.057 89.6869 62.3862 57.7203
internal_count=108 93 71 24 47 38 27 22
is_linear=0
shrinkage=0.04


Tree=28
num_leaves=12
num_cat=0
split_feature=0 19 19 26 6 20 15 22 8 8 21
split_gain=1.17492 1.59617 1.16473 1.4196 1.66696 1.16851 0.842844 0.683077 0.628927 0.666155 0.194398
threshold=9.5000000000000018 1.113974911053871 2.5679610533365618 -0.99790518522306215 1.5591050167452787 2.003850741534261 0.50529467147097107 0.4954183635158913 1.5969448411218541 0.99120420395967257 -0.67300192503007439
decision_type=2 2 2 2 2 2 2 2 2 2 2
left_child=2 -2 3 -1 5 7 8 10 9 -6 -5
right_child=1 -3 -4 4 6 -7 -8 -9 -10 -11 -12
leaf_value=-0.0065521878369344255 -0.014771649487048639 0.0016805617246962372 -0.007167095106195686 0.009269557740578813 -0.0013404718610058738 -0.00029713958418927256 0.0059138546464245012 0.003513235285954013 0.0027663584824412853 -0.011955707718909034 0.015715790352321166
leaf_weight=24.58647620677948 17.947777390480042 18.342006921768188 22.65094268321991 23.044860124588013 24.006460428237915 22.699702382087708 23.006437301635742 20.287056922912598 19.205533146858215 16.436862111091614 23.276016712188721
leaf_count=10 9 8 11 8 10 9 9 8 8 8 8
internal_value=0.00016053 -0.00643763 0.00128326 0.00229312 0.00359631 0.00737182 -0.000454766 0.0100277 -0.00300637 -0.0058457 0.0127274
internal_weight=255.49 36.2898 219.2 196.549 171.963 89.3076 82.6553 66.6079 59.6489 40.4433 46.3209
internal_count=106 17 89 78 68 33 35 24 26 18 16
is_linear=0
shrinkage=0.04


Tree=29
num_leaves=8
num_cat=0
split_feature=8 16 7 11 26 2 7
split_gain=1.18978 0.614753 0.802238 1.20235 1.06101 0.681826 1.04963
threshold=-0.9999999517720638 0.495438642677626 0.66145108403797781 0.6602334295734974 0.4711359454562683 0.75740337996745777 1.3395533806724851
decision_type=2 2 2 2 2 2 2
left_child=-1 2 3 4 -2 6 -4
right_child=1 -3 5 -5 -6 -7 -8
leaf_value=0.0060750249618676125 -0.012905147085014756 -0.0061955191432996309 0.0092559328835017992 0.0026541965567461172 -0.0011377520913626136 -0.0033722317579249275 -0.00033162413986421259
leaf_weight=42.907846450805664 24.496419072151184 32.711535096168518 34.045135140419006 33.514788746833801 25.877265334129333 24.600186347961426 37.076268315315247
leaf_count=15 12 15 13 14 11 11 15
internal_value=2.45273e-05 -0.00119082 -0.000242456 -0.00310838 -0.00700939 0.00223071 0.00423458
internal_weight=255.229 212.322 179.61 83.8885 50.3737 95.7216 71.1214
internal_count=106 91 76 37 23 39 28
is_linear=0
shrinkage=0.04


Tree=30
num_leaves=9
num_cat=0
split_feature=24 8 4 0 20 17 24 8
split_gain=1.51423 1.11995 0.977253 0.803131 1.00176 0.930269 0.919756 0.188436
threshold=0.99803163455124755 -0.9999999517720638 0.38830275747273529 4.5000000000000009 1.0013274383358721 0.077371654992081929 0.49517831868879819 1.0061102903217058
decision_type=2 2 2 2 2 2 2 2
left_child=1 -1 -2 6 5 -5 -3 -6
right_child=2 3 -4 4 7 -7 -8 -9
leaf_value=0.0078397646343613334 -0.011850016404206727 -0.0017034338997148958 -1.4030592864294566e-05 -0.0046434705266196951 -0.004299814585626084 0.0055415038558769107 0.0070326033647320624 -0.010727057261029798
leaf_weight=32.923304080963135 26.196759819984436 35.509498476982117 20.353632688522339 26.696668267250061 18.385846018791199 29.648956179618835 39.875189065933228 18.537318706512451
leaf_count=11 13 15 8 12 8 12 15 9
internal_value=-0.000340479 0.00114807 -0.00681503 -0.000153905 -0.00265159 0.000647079 0.00288072 -0.00773371
internal_weight=248.127 201.577 46.5504 168.653 93.2688 56.3456 75.3847 36.9232
internal_count=103 82 21 71 41 24 30 17
is_linear=0
shrinkage=0.04


Tree=31
num_leaves=10
num_cat=0
split_feature=8 10 0 19 3 15 9 24 6
split_gain=2.0647 0.931103 0.76637 0.974731 0.771927 1.02611 0.967351 0.744694 0.661596
threshold=-0.98802910099125063 0.41531599164079175 9.5000000000000018 2.5679610533365618 0.49467318345745132 0.33933990588401974 0.19379135248462243 0.49517831868879819 2.0038801678112104
decision_type=2 2 2 2 2 2 2 2 2
left_child=1 -1 3 4 5 8 -6 -7 -2
right_child=2 -3 -4 -5 6 7 -8 -9 -10
leaf_value=0.0011547896819906693 -0.0052205428937261555 0.012618602273547108 -0.0078337917707704437 -0.0091949711559789014 0.0013557344193253066 0 -0.010919101028128901 0.010026298802490256 0.0035945647660136364
leaf_weight=22.619565963745117 33.231893420219421 24.311629295349121 30.584248900413513 19.552761673927307 20.515534639358521 18.269195079803467 18.946070194244385 30.478275299072266 21.920164704322815
leaf_count=8 14 8 15 10 8 8 9 11 9
internal_value=-0.000214781 0.00724811 -0.00205947 -0.000930312 0.000197126 0.00203258 -0.00450037 0.00624822 -0.00164429
internal_weight=240.429 46.9312 193.498 162.914 143.361 103.9 39.4616 48.7475 55.1521
internal_count=100 16 84 69 59 42 17 19 23
is_linear=0
shrinkage=0.04


Tree=32
num_leaves=11
num_cat=0
split_feature=8 13 19 19 0 2 15 21 17 22
split_gain=1.2579 0.683857 0.662921 1.75678 1.48589 0.891914 0.977893 0.450882 0.656252 0.287983
threshold=-0.98802910099125063 3.5000000000000004 2.8758681060100941 1.9973036488213769 9.5000000000000018 0.24506433740665692 0.33933990588401974 -1.0000000180025095e-35 0.58398952513227431 0.4954183635158913
decision_type=2 2 2 2 2 2 2 2 2 2
left_child=1 -1 3 4 5 -2 7 8 -7 -8
right_child=2 -3 -4 -5 -6 6 9 -9 -10 -11
leaf_value=0.0011622089337664839 -0.0077311211060492836 0.011031614550787879 -0.0080968530161057081 0.0085806943874185346 -0.0109689037835229 0.0055024031108070045 0.0093324666458609665 -0.0072570171874254946 -0.0034036554239634748 0.0022610709067029848
leaf_weight=22.61140775680542 20.430235385894775 24.291423797607422 17.681330800056458 30.646406650543213 23.552111148834229 21.810802936553955 21.62407112121582 16.470094203948975 31.93861448764801 19.655576586723328
leaf_count=8 9 8 9 12 12 8 8 8 14 8
internal_value=0.000541386 0.0064205 -0.000804403 -7.0383e-05 -0.00182325 -0.000125108 0.00126114 -0.00156674 0.000153977 0.00612847
internal_weight=250.712 46.9028 203.809 186.128 155.482 131.929 111.499 70.2195 53.7494 41.2796
internal_count=104 16 88 79 67 55 46 30 22 16
is_linear=0
shrinkage=0.04


Tree=33
num_leaves=11
num_cat=0
split_feature=20 21 1 19 7 26 23 7 13 8
split_gain=1.36488 1.32029 1.6614 1.3881 1.35349 1.12988 0.947849 1.0623 0.486017 0.324671
threshold=1.3534587918437897 0.99917913949592274 1.0246748100760295 0.49566794253935731 0.50998540251268676 1.0217097840917353 0.99802522488673706 0.99870983455365214 3.5000000000000004 0.7597593245643538
decision_type=2 2 2 2 2 2 2 2 2 2
left_child=1 2 -1 -4 -5 8 -3 -8 -2 -6
right_child=5 6 3 4 9 -7 7 -9 -10 -11
leaf_value=-0.015169664495767321 0.0036030112708173162 0.0081225808252847025 0.0064758378159789623 0.0018416700440273956 -0.0059144816913753537 -0.0018778386062628368 -0.0086071237215527546 0.00335445775323496 0.012431458781284379 -0.014480384999824189
leaf_weight=19.512091398239136 20.207531809806824 26.86839485168457 20.986250042915344 23.730809330940247 17.704385042190552 24.738656163215637 18.505528211593628 30.766076922416687 24.455408811569214 16.949606776237488
leaf_count=9 8 10 8 10 8 11 9 12 8 9
internal_value=8.52942e-05 -0.00178072 -0.00483137 -0.00216073 -0.00536168 0.00482746 0.00213465 -0.00109906 0.00860975 -0.0103643
internal_weight=244.425 175.023 98.8831 79.3711 58.3848 69.4016 76.14 49.2716 44.6629 34.654
internal_count=102 75 44 35 27 27 31 21 16 17
is_linear=0
shrinkage=0.04


Tree=34
num_leaves=11
num_cat=0
split_feature=20 24 24 19 2 20 3 5 5 9
split_gain=0.957683 1.10957 1.07798 1.57786 1.04927 1.47734 1.52521 0.94534 0.718322 0.324627
threshold=1.495673854705676 0.49615672728215571 0.99803163455124755 1.5043599095960321 0.99694895763568392 1.0013274383358721 0.1417585902596801 1.4856066587062398 1.9903732532259504 0.2861605405996806
decision_type=2 2 2 2 2 2 2 2 2 2
left_child=2 7 4 -4 5 6 -1 -2 -7 -8
right_child=1 -3 3 -5 -6 8 9 -9 -10 -11
leaf_value=-0.0054314747918220449 0.0059475378227762943 0.011233020377456358 -0.014957790463651215 0.00070165191327883414 0.0080466899511998733 -0.0016828921130454164 0.0095530843990008323 -0.0061277195151883028 -0.012840900963330511 0.0031688973244795421
leaf_weight=28.181645750999451 22.975761413574219 25.417175889015198 18.647766828536987 21.183944225311279 25.509640216827393 20.067712664604187 22.817926645278931 17.98699676990509 18.571768522262573 36.228045582771301
leaf_count=12 8 9 9 9 10 8 8 8 10 15
internal_value=0.000617679 0.00474684 -0.000803576 -0.0066249 0.000718619 -0.000760879 0.00209013 0.000538793 -0.00724363 0.0057627
internal_weight=257.588 66.3799 191.208 39.8317 151.377 125.867 87.2276 40.9628 38.6395 59.046
internal_count=106 25 81 18 63 53 35 16 18 23
is_linear=0
shrinkage=0.04


Tree=35
num_leaves=11
num_cat=0
split_feature=0 8 19 9 26 0 16 13 23 14
split_gain=1.94175 0.900404 0.697443 0.794493 0.756146 2.05833 0.684786 0.571256 0.422911 0.407259
threshold=9.5000000000000018 -0.98802910099125063 2.2888999825025356 0.66964806450709236 0.32214450368647657 3.5000000000000004 0.00096015418755026618 2.5000000000000004 0.50408637314354288 3.0112804821500263
decision_type=2 2 2 2 2 2 2 2 2 2
left_child=1 7 3 4 -3 -6 -5 -1 -7 -2
right_child=9 2 -4 6 5 8 -8 -9 -10 -11
leaf_value=0.0010878994119268939 -0.014055384237677404 0.0033093775067467596 -0.0072390088801626605 0 0.0029170352211795687 -0.0053368535479706722 0.0096233142726420626 0.010053125573556219 -0.014829577634933458 -0.0043277176750016709
leaf_weight=22.693378925323486 15.672736287117006 37.731551647186279 19.61435329914093 24.010798811912537 36.634113073348999 16.980513572692871 24.118931770324707 25.10228419303894 18.160071730613708 15.845050215721129
leaf_count=8 8 15 10 10 14 8 9 8 9 8
internal_value=-0.000203188 0.00108988 -0.000207012 0.000662794 -0.00119237 -0.00362077 0.00493483 0.00593459 -0.010494 -0.00943384
internal_weight=256.564 225.046 177.25 157.636 109.506 71.7747 48.1297 47.7957 35.1406 31.5178
internal_count=107 91 75 65 46 31 19 16 17 16
is_linear=0
shrinkage=0.04


Tree=36
num_leaves=9
num_cat=0
split_feature=8 7 11 16 13 21 15 21
split_gain=1.63446 0.765171 1.22661 0.934353 1.75681 0.772395 0.821558 0.283596
threshold=-0.9999999517720638 1.3395533806724851 0.50384387185495516 1.0000000180025095e-35 2.5000000000000004 1.0000000180025095e-35 0.49671709839982248 1.0014050213050529
decision_type=2 2 2 2 2 2 2 2
left_child=-1 3 -3 4 -2 -5 -7 -8
right_child=1 2 -4 5 -6 6 7 -9
leaf_value=0.0081306034321405041 0.002208656950489525 -0.00034666912136483005 -0.014072380429258593 0.0073827817916790554 -0.011438811425823221 -0.005388652976344401 -0.00023306791444385386 0.0058656649671286277
leaf_weight=39.7204430103302 36.013645172119141 30.956668019294739 15.720202207565306 37.888176679611206 24.893690943717957 25.333362698554993 18.548657774925232 29.26910936832428
leaf_count=13 15 12 8 15 13 12 8 11
internal_value=0.000712427 -0.000632561 -0.00515426 0.000583096 -0.00335184 0.0027827 0.000311862 0.00343923
internal_weight=258.344 218.624 46.6769 171.947 60.9073 111.039 73.1511 47.8178
internal_count=107 94 20 74 28 46 31 19
is_linear=0
shrinkage=0.04


Tree=37
num_leaves=9
num_cat=0
split_feature=6 27 27 27 6 22 24 15
split_gain=1.21665 0.710156 1.07796 1.08539 0.892545 0.807437 0.554134 0.396618
threshold=2.0142495354784931 1.602064145238949 -0.43688821043420834 -1.9948954734679194 1.0096323821690418 0.33308878659233704 0.33955338067248481 0.49516483832739211
decision_type=2 2 2 2 2 2 2 2
left_child=1 2 3 -1 -5 6 -4 -7
right_child=-2 -3 5 4 -6 7 -8 -9
leaf_value=0.0035336875788613935 -0.0075718957954963263 -0.0047008004598587299 0.0022835162640838296 -0.011631613965211394 -0.00025406232913723444 -0.0041172865004942601 0.010370127463890551 0.0039484045428223738
leaf_weight=37.365021944046021 29.921934604644775 29.437567353248596 23.247388362884521 20.629248023033142 24.688581109046936 18.166922569274902 39.387215256690979 19.907166361808777
leaf_count=14 15 13 10 9 11 8 14 8
internal_value=-7.34389e-05 0.000977305 0.0019208 -0.00142293 -0.00559098 0.00469902 0.00747392 0
internal_weight=242.751 212.829 183.392 82.6829 45.3178 100.709 62.6346 38.0741
internal_count=102 87 74 34 20 40 24 16
is_linear=0
shrinkage=0.04


Tree=38
num_leaves=8
num_cat=0
split_feature=11 20 17 11 15 11 9
split_gain=1.65572 1.24996 1.67811 1.01614 1.39889 0.945537 0.504805
threshold=0.0040004991533393675 1.6612478719377581 0.49641656527539296 0.66254719206957546 0.50529467147097107 0.50193706236757307 5.0686304828567466e-18
decision_type=2 2 2 2 2 2 2
left_child=6 2 3 4 -2 -6 -1
right_child=1 -3 -4 -5 5 -7 -8
leaf_value=0.0029242423832442029 0.0018979702959827718 0.0055743603074191054 -0.014560496019499771 0.0041615977171543727 -0.0016334071934611264 -0.014178531443414551 0.0098292234984522428
leaf_weight=43.643713712692261 34.696831345558167 32.75494396686554 17.213217616081238 36.375393986701965 17.817697167396545 23.059282541275024 30.683884382247925
leaf_count=15 15 13 9 15 8 12 11
internal_value=0.0009435 -0.0013067 -0.00309732 -0.00124228 -0.00390612 -0.00889278 0.00587484
internal_weight=236.245 161.917 129.162 111.949 75.5738 40.877 74.3276
internal_count=98 72 59 50 35 20 26
is_linear=0
shrinkage=0.04


Tree=39
num_leaves=11
num_cat=0
split_feature=13 11 11 6 8 23 21 3 7 6
split_gain=0.963327 1.14757 1.52221 1.13471 1.1955 0.750059 1.09223 0.741315 0.571142 0.474325
threshold=10.500000000000002 0.0040004991533393675 0.62646249531894893 1.2863969338093482 1.0061102903217058 0.49842554460249566 1.0144401201610751 0.4531413625897916 1.5143454047385652 2.0142495354784931
decision_type=2 2 2 2 2 2 2 2 2 2
left_child=1 7 5 -4 -5 -3 -7 8 -1 -6
right_child=-2 2 3 4 9 6 -8 -9 -10 -11
leaf_value=0.0044481414663738042 0.0086545427244849333 0.00030183886446405911 0.0086766885049811924 -0.011316612143600621 0.0060217609837606876 -0.015866285059361135 -0.0038065505211288698 0.0087143535354548933 -0.0037752057574796352 -0.0026510020812829161
leaf_weight=27.714227676391602 19.344750881195068 15.66303765773773 22.132425785064697 15.170391917228697 19.817874789237976 22.999805927276611 27.770263075828552 26.301665306091309 25.228890657424927 18.900636315345764
leaf_count=10 7 7 8 8 8 12 13 9 9 9
internal_value=0.000198905 -0.000538719 -0.00269758 0.00112331 -0.0019566 -0.00710543 -0.00944931 0.00328458 0.000455981 0.00170629
internal_weight=241.044 221.699 142.454 76.0213 53.8889 66.4331 50.7701 79.2448 52.9431 38.7185
internal_count=100 93 65 33 25 32 25 28 19 17
is_linear=0
shrinkage=0.04


Tree=40
num_leaves=12
num_cat=0
split_feature=0 23 8 19 7 28 27 4 6 6 8
split_gain=0.903241 1.77925 0.80419 0.968636 0.979616 0.461923 0.609894 0.542532 0.354506 0.310017 0.461178
threshold=9.5000000000000018 0.74787435460736063 -0.98802910099125063 2.5679610533365618 1.5143454047385652 2020.0000000000002 1.1197473189203602 0.0039358781429268156 0.49566794253935731 1.6754401048380132 1.3397567333655671
decision_type=2 2 2 2 2 2 2 2 2 2 2
left_child=2 -2 8 4 5 9 7 -7 -1 -4 -11
right_child=1 -3 3 -5 -6 6 -8 -9 -10 10 -12
leaf_value=0.0016766181945445497 -0.016306988617339053 0.0020763590964270363 0.0061637875448621393 -0.00880103510962915 -0.0080826940169059884 0.006454820575712672 -0.0062928490888132793 -0.0024606132283312562 0.0087611871953114893 -0.0025083695496612712 0.0056069521789643842
leaf_weight=23.916479349136353 14.664589643478392 18.002093911170959 41.22295606136322 18.838674068450928 17.65947961807251 21.003408193588257 21.159506678581238 20.986871480941772 24.860414505004883 23.35080361366272 20.148770570755005
leaf_count=8 8 8 15 10 8 8 10 9 8 10 8
internal_value=0 -0.00617704 0.000876953 -0.000314959 0.000650319 0.00174393 -0.000791366 0.0019282 0.00542089 0.00367416 0.00118069
internal_weight=265.814 32.6667 233.147 184.37 165.532 147.872 63.1498 41.9903 48.7769 84.7225 43.4996
internal_count=110 16 94 78 68 60 27 17 16 33 18
is_linear=0
shrinkage=0.04


Tree=41
num_leaves=10
num_cat=0
split_feature=27 0 21 21 21 4 11 16 20
split_gain=0.73486 1.20622 1.01946 1.05368 0.99931 2.15811 1.09123 1.34509 0.626018
threshold=1.602064145238949 6.5000000000000009 -0.0063027954918536098 -0.67300192503007439 0.99917913949592274 0.0020015553973723151 0.66254719206957546 0.086177854170861587 1.7167168986141219
decision_type=2 2 2 2 2 2 2 2 2
left_child=2 -2 3 8 5 -4 7 -6 -1
right_child=1 -3 4 -5 6 -7 -8 -9 -10
leaf_value=-0.0033788574153086515 2.5867723599991396e-05 -0.013467392941998318 0.0048943339105792637 0.012353759010524877 -0.0059608818440660249 -0.011614918991147997 0.0095893925738918338 0.006679318864119467 0.0058900490299838805
leaf_weight=19.757247447967529 35.998641729354858 14.185962796211241 20.743117809295654 23.27402138710022 32.151013374328613 30.285223603248596 22.789181232452393 22.328536748886108 26.134544253349304
leaf_count=8 15 8 8 8 15 15 8 8 9
internal_value=0.000470993 -0.00380466 0.00158471 0.0054852 -0.000500148 -0.00484388 0.00232972 -0.00069389 0.00181999
internal_weight=247.647 50.1846 197.463 69.1658 128.297 51.0283 77.2687 54.4796 45.8918
internal_count=102 23 79 25 54 23 31 23 17
is_linear=0
shrinkage=0.04


Tree=42
num_leaves=11
num_cat=0
split_feature=11 3 20 20 9 3 15 9 20 14
split_gain=1.24385 1.50707 2.01647 1.05371 1.28406 0.547817 1.28683 0.459474 0.745549 0.140086
threshold=0.0040004991533393675 0.29207966059831786 0.99608634381144345 1.7167168986141219 0.0029491196927808332 0.00098825154299873874 0.001461432837273899 0.6664825359555907 1.0013274383358721 2.9991771273790655
decision_type=2 2 2 2 2 2 2 2 2 2
left_child=5 3 -3 4 -2 6 -1 8 -6 -4
right_child=1 2 9 -5 7 -7 -8 -9 -10 -11
leaf_value=-0.0055094775944851387 -0.010320025362608858 0.0014151596452179492 -0.011013806272643921 0.0081156313599426832 0.0021687848966326622 0.0074275147847890277 0.0071250956333446863 0.0037302750010430549 -0.0090687715977254661 -0.018893993725021329
leaf_weight=25.55081582069397 21.916749477386475 18.5770183801651 14.634199976921083 19.726985692977905 21.555526375770569 31.962499260902405 24.915695905685425 37.049522876739502 15.612783908843992 13.871198892593382
leaf_count=10 11 8 8 7 9 11 8 15 8 8
internal_value=-0.000609847 -0.00264692 -0.00864221 -0.000149586 -0.00192023 0.00336045 0.000658528 0.000559178 -0.00250315 -0.0152459
internal_weight=245.373 162.944 47.0824 115.862 96.1346 82.429 50.4665 74.2178 37.1683 28.5054
internal_count=103 74 24 50 43 29 18 32 17 16
is_linear=0
shrinkage=0.04


Tree=43
num_leaves=9
num_cat=0
split_feature=24 6 24 14 0 11 10 29
split_gain=0.933473 1.23887 0.813883 1.25004 1.08912 0.729858 0.485578 0.398338
threshold=0.99803163455124755 1.3685286518381778 0.49517831868879819 2.9991771273790655 5.5000000000000009 0.66107209004401146 0.9979889258553003 6.5000000000000009
decision_type=2 2 2 2 2 2 2 2
left_child=2 -2 3 7 6 -6 -4 -1
right_child=1 -3 4 -5 5 -7 -8 -9
leaf_value=-0.0019223885396711052 5.6893787509454272e-06 -0.012782911156669699 0.0097195250009565505 -0.0100028219103256 -0.0071926252621937478 0.002720590432303755 0.0030814427315045355 0.0051948899334381743
leaf_weight=24.801326990127563 32.009356260299683 18.415569663047791 36.20804238319397 21.195629000663757 19.54072105884552 28.101294755935669 39.854655146598816 23.680876493453979
leaf_count=10 13 10 12 11 10 12 15 9
internal_value=0.000135697 -0.00466591 0.00141716 -0.00199549 0.00337187 -0.00129477 0.00633644 0.00148989
internal_weight=243.807 50.4249 193.383 69.6778 123.705 47.642 76.0627 48.4822
internal_count=102 23 79 30 49 22 27 19
is_linear=0
shrinkage=0.04


Tree=44
num_leaves=9
num_cat=0
split_feature=20 10 22 26 24 10 2 0
split_gain=0.821506 1.52368 2.75844 1.04567 0.632325 0.597209 0.569696 0.357992
threshold=1.495673854705676 0.99964799206852073 0.49171133940114969 1.0217097840917353 0.77363482778967063 0.50520392292741934 0.75148523198799644 6.5000000000000009
decision_type=2 2 2 2 2 2 2 2
left_child=1 2 7 -2 6 -4 -3 -1
right_child=3 4 5 -5 -6 -7 -8 -9
leaf_value=-0.017182494292444919 0.0081654262645886166 0.00079047938879533747 0.0039083306640248314 -0.00223871728986975 -0.0032743501393595726 -0.0042430646152969561 0.0089900715930023023 -0.0082842978009428567
leaf_weight=19.616882562637329 36.816270112991333 28.837411046028137 35.085599064826965 25.255436182022095 19.629631519317627 23.438757300376892 27.431868076324463 17.975653290748596
leaf_count=10 12 12 13 11 9 11 10 9
internal_value=-2.46248e-05 -0.00146549 -0.00481499 0.00388425 0.00272764 0.000567674 0.0049023 -0.0131972
internal_weight=234.088 172.016 96.1169 62.0717 75.8989 58.5244 56.2693 37.5925
internal_count=97 74 43 23 31 24 22 19
is_linear=0
shrinkage=0.04


Tree=45
num_leaves=10
num_cat=0
split_feature=27 21 13 14 4 22 5 24 9
split_gain=0.9007 1.15927 0.966747 0.900714 0.858686 0.849499 1.43249 0.540386 0.460296
threshold=1.602064145238949 -0.0063027954918536098 10.500000000000002 2.0158510025878402 1.048292229851244e-30 0.99593719646084933 1.0840789674990978 0.74749763864043717 0.66964806450709236
decision_type=2 2 2 2 2 2 2 2 2
left_child=1 3 5 -1 -2 6 -3 8 -8
right_child=4 2 -4 -5 -6 -7 7 -9 -10
leaf_value=0.0091634304166665348 0.00066325289679156605 -0.014329453840038711 0.0069624037103379645 0 -0.010193030856692665 0.005019796698379958 -0.0019119884346085487 -0.006539716770824008 0.00593148258990685
leaf_weight=45.17950177192688 23.173193097114563 16.473691940307617 22.087633609771729 26.344716429710388 21.622365355491638 20.636008024215698 31.471374988555908 21.560824275016785 18.338289976119995
leaf_count=14 10 8 8 11 11 7 14 11 7
internal_value=0.000533454 0.00168695 -0.000530431 0.00576591 -0.00454333 -0.00211769 -0.0038586 -0.0013032 0.000926464
internal_weight=246.888 202.092 130.568 71.5242 44.7956 108.48 87.8442 71.3705 49.8097
internal_count=101 80 55 25 21 47 40 32 21
is_linear=0
shrinkage=0.04


Tree=46
num_leaves=8
num_cat=0
split_feature=16 8 24 19 27 24 12
split_gain=1.43565 1.2492 0.675236 1.03449 0.796936 0.77159 0.259111
threshold=0.66321501138669026 -0.98802910099125063 0.74749763864043717 1.4954611319463151 -0.43688821043420834 0.33955338067248481 0.39983736407213227
decision_type=2 2 2 2 2 2 2
left_child=1 -1 4 -4 -3 -6 -7
right_child=-2 2 3 -5 5 6 -8
leaf_value=0.0077590231873701856 -0.008224238507656207 -0.0051554563747881225 -0.010128153880275735 0.0010097025469571533 -0.0010423078585305441 0.0083854368767066149 0.0023192502922145795
leaf_weight=44.605788230895996 24.753657817840576 19.484538316726685 21.474939703941345 32.361971855163574 34.244598269462585 37.94162654876709 19.602713465690613
leaf_count=14 12 9 11 14 15 13 8
internal_value=0.000760221 0.00185676 0.000219457 -0.00341176 0.00201952 0.00360562 0.00642566
internal_weight=234.47 209.716 165.11 53.8369 111.273 91.7889 57.5443
internal_count=96 84 70 25 45 36 21
is_linear=0
shrinkage=0.04


Tree=47
num_leaves=12
num_cat=0
split_feature=19 21 10 11 21 7 11 7 10 6 27
split_gain=0.768456 1.55803 1.38672 1.16339 1.03792 1.01031 0.954021 1.62353 0.49968 0.394033 0.316312
threshold=0.99800494894772918 0.0096259320823934898 0.9979889258553003 0.0010021870815032879 0.99917913949592274 0.50998540251268676 0.66254719206957546 0.99870983455365214 0.50360829421427111 1.9960306365964879 1.1197473189203602
decision_type=2 2 2 2 2 2 2 2 2 2 2
left_child=2 10 8 -4 5 -3 7 -6 -1 -5 -2
right_child=1 4 3 9 6 -7 -8 -9 -10 -11 -12
leaf_value=-0.0011101430407694081 0.011594055339217701 0 0.00067497435236386373 -0.016394126860801734 -0.009452797773922824 -0.01369944113656292 0.0090191919626339215 0.0048938737474247011 0.0074313543662925721 -0.0063726986612893536 0.0042444557616650351
leaf_weight=21.57250964641571 25.119726657867432 20.194969177246094 19.264537334442139 15.045480966567995 20.049383878707886 14.7388299703598 23.248956680297852 32.053314685821533 20.234073996543884 15.357701420783995 19.656561017036438
leaf_count=8 8 8 7 8 10 8 8 12 8 8 8
internal_value=0.000562481 0.00228813 -0.00231577 -0.0068285 -0.000240514 -0.00592385 0.00236328 -0.000588133 0.0029683 -0.0116464 0.00853847
internal_weight=246.536 155.062 91.4743 49.6677 110.285 34.9338 75.3517 52.1027 41.8066 30.4032 44.7763
internal_count=101 62 39 23 46 16 30 22 16 16 16
is_linear=0
shrinkage=0.04


Tree=48
num_leaves=11
num_cat=0
split_feature=16 15 7 27 0 27 20 1 0 19
split_gain=0.789035 0.997675 1.16766 1.12705 0.859858 0.552628 0.938016 0.589925 0.594961 0.231797
threshold=0.66321501138669026 0.91458765945958109 0.99870983455365214 1.602064145238949 4.5000000000000009 -0.43688821043420834 0.99976072939420801 2.9994619323321019 8.5000000000000018 0.99917678763114726
decision_type=2 2 2 2 2 2 2 2 2 2
left_child=1 3 -3 5 -5 6 -1 9 -9 -7
right_child=-2 2 -4 4 -6 7 -8 8 -10 -11
leaf_value=0.005794583778930185 -0.005895949484823193 -0.012189942462873575 0.001770720541766994 0.00088378663324689742 -0.010944113626418249 0.0058245530888176179 -0.0044804081614638457 -0.0023608089641380899 0.0068633236074175435 0.011805070029945783
leaf_weight=29.351579666137695 26.271627187728882 16.953865766525269 20.112414240837097 26.777499556541443 14.5159455537796 27.759603500366211 26.408379197120667 20.86434805393219 22.171369791030884 24.949015617370605
leaf_count=10 13 9 8 11 8 9 11 9 9 8
internal_value=0.000577753 0.0013462 -0.00458557 0.00251622 -0.00325957 0.0041223 0.000860594 0.00596597 0.0023237 0.00881487
internal_weight=256.136 229.864 37.0663 192.798 41.2934 151.504 55.76 95.7443 43.0357 52.7086
internal_count=105 92 17 75 19 56 21 35 18 17
is_linear=0
shrinkage=0.04


Tree=49
num_leaves=10
num_cat=0
split_feature=0 21 22 4 19 15 19 26 2
split_gain=1.16871 0.575884 1.32493 2.07757 0.850692 1.02465 0.469246 0.472382 0.449356
threshold=9.5000000000000018 -1.0000000180025095e-35 0.36607122196001241 0.00026476376144202347 0.99917678763114726 0.001461432837273899 1.5043599095960321 -0.51399373721961195 0.50453351453386119
decision_type=2 2 2 2 2 2 2 2 2
left_child=1 4 3 -3 5 8 -4 -8 -1
right_child=-2 2 6 -5 -6 -7 7 -9 -10
leaf_value=-0.0073778131499366659 -0.008310815594352438 0.0013865211045563932 -0.0023918200169974592 -0.015670722282496077 0.0080836584988178313 0.0066326287204468868 0.0082822969054174543 0 0.00045437672354782413
leaf_weight=23.041658163070679 28.405338168144226 22.367446064949036 25.481129884719849 21.903685569763184 29.769065618515015 23.878423452377319 22.449562549591064 20.241273403167725 21.447846055030823
leaf_count=10 15 9 11 12 10 8 8 8 9
internal_value=-0.000764414 0.000251852 -0.00167787 -0.00704418 0.00250073 0 0.0017747 0.00435311 -0.00355001
internal_weight=238.985 210.58 112.443 44.2711 98.137 68.3679 68.172 42.6908 44.4895
internal_count=100 85 48 21 37 27 27 16 19
is_linear=0
shrinkage=0.04


end of trees

feature_importances:
home_home_match_share=41
away_goals_for=34
away_home_match_share=31
away_goals_against=30
home_goal_difference=27
away_matches_considered=23
home_matches_considered=22
away_goal_difference=22
away_draw_rate=19
delta_goal_difference=19
home_loss_rate=18
home_goals_against=18
home_clean_sheet_rate=17
home_goals_for=14
home_draw_rate=13
home_scoring_rate=12
away_win_rate=12
delta_points_per_match=12
home_effective_sample_size=10
away_clean_sheet_rate=10
away_loss_rate=8
home_win_rate=7
away_scoring_rate=7
home_points_per_match=5
away_effective_sample_size=5
match_year=4
match_month=3
away_points_per_match=2
home_sample_confidence=1

parameters:
[boosting: gbdt]
[objective: poisson]
[metric: poisson,l1]
[tree_learner: serial]
[device_type: cpu]
[data_sample_strategy: bagging]
[data: ]
[valid: ]
[num_iterations: 50]
[learning_rate: 0.04]
[num_leaves: 15]
[num_threads: 1]
[seed: 20260719]
[deterministic: 0]
[force_col_wise: 0]
[force_row_wise: 0]
[histogram_pool_size: -1]
[max_depth: -1]
[min_data_in_leaf: 8]
[min_sum_hessian_in_leaf: 0.001]
[bagging_fraction: 0.9]
[pos_bagging_fraction: 1]
[neg_bagging_fraction: 1]
[bagging_freq: 1]
[bagging_seed: 20260719]
[bagging_by_query: 0]
[feature_fraction: 0.85]
[feature_fraction_bynode: 1]
[feature_fraction_seed: 20260719]
[extra_trees: 0]
[extra_seed: 4884]
[early_stopping_round: 0]
[early_stopping_min_delta: 0]
[first_metric_only: 0]
[max_delta_step: 0]
[lambda_l1: 0.1]
[lambda_l2: 0.5]
[linear_lambda: 0]
[min_gain_to_split: 0]
[drop_rate: 0.1]
[max_drop: 50]
[skip_drop: 0.5]
[xgboost_dart_mode: 0]
[uniform_drop: 0]
[drop_seed: 3802]
[top_rate: 0.2]
[other_rate: 0.1]
[min_data_per_group: 100]
[max_cat_threshold: 32]
[cat_l2: 10]
[cat_smooth: 10]
[max_cat_to_onehot: 4]
[top_k: 20]
[monotone_constraints: ]
[monotone_constraints_method: basic]
[monotone_penalty: 0]
[feature_contri: ]
[forcedsplits_filename: ]
[refit_decay_rate: 0.9]
[cegb_tradeoff: 1]
[cegb_penalty_split: 0]
[cegb_penalty_feature_lazy: ]
[cegb_penalty_feature_coupled: ]
[path_smooth: 0]
[interaction_constraints: ]
[verbosity: -1]
[saved_feature_importance_type: 0]
[use_quantized_grad: 0]
[num_grad_quant_bins: 4]
[quant_train_renew_leaf: 0]
[stochastic_rounding: 1]
[linear_tree: 0]
[max_bin: 255]
[max_bin_by_feature: ]
[min_data_in_bin: 3]
[bin_construct_sample_cnt: 200000]
[data_random_seed: 4429]
[is_enable_sparse: 1]
[enable_bundle: 1]
[use_missing: 1]
[zero_as_missing: 0]
[feature_pre_filter: 1]
[pre_partition: 0]
[two_round: 0]
[header: 0]
[label_column: ]
[weight_column: ]
[group_column: ]
[ignore_column: ]
[categorical_feature: ]
[forcedbins_filename: ]
[precise_float_parser: 0]
[parser_config_file: ]
[objective_seed: 30213]
[num_class: 1]
[is_unbalance: 0]
[scale_pos_weight: 1]
[sigmoid: 1]
[boost_from_average: 1]
[reg_sqrt: 0]
[alpha: 0.9]
[fair_c: 1]
[poisson_max_delta_step: 0.7]
[tweedie_variance_power: 1.5]
[lambdarank_truncation_level: 30]
[lambdarank_norm: 1]
[label_gain: ]
[lambdarank_position_bias_regularization: 0]
[eval_at: ]
[multi_error_top_k: 1]
[auc_mu_weights: ]
[num_machines: 1]
[local_listen_port: 12400]
[time_out: 120]
[machine_list_filename: ]
[machines: ]
[gpu_platform_id: -1]
[gpu_device_id: -1]
[gpu_use_dp: 0]
[num_gpu: 1]

end of parameters

pandas_categorical:null
