tree
version=v4
num_class=1
num_tree_per_iteration=1
label_index=0
max_feature_idx=29
objective=poisson
feature_names=home_matches_considered home_effective_sample_size home_win_rate home_draw_rate home_loss_rate home_points_per_match home_goals_for home_goals_against home_goal_difference home_clean_sheet_rate home_scoring_rate home_home_match_share home_sample_confidence away_matches_considered away_effective_sample_size away_win_rate away_draw_rate away_loss_rate away_points_per_match away_goals_for away_goals_against away_goal_difference away_clean_sheet_rate away_scoring_rate away_home_match_share away_sample_confidence delta_points_per_match delta_goal_difference match_year match_month
feature_infos=[1:19] [1:6.9922526492878614] [0:1] [0:1] [0:1] [0:3] [0:6.9582867734578588] [0:4.5173279086647504] [-4.0115519391098333:6.9464769349593221] [0:1] [0:1] [0:1] [0.10000000000000001:0.69922526492878612] [1:20] [1:6.9899360937387467] [0:1] [0:1] [0:1] [0:3] [0:4.0096267467740505] [0:6.9683657428701027] [-6.9643302446781696:3.4855598798389256] [0:1] [0:1] [0:1] [0.10000000000000001:0.69899360937387467] [-3:3] [-3.516365312496859:7.9541918930061293] [1974:2022] [6:12]
tree_sizes=1238 1091 1192 1403 1203 1286 1188 1198 1076 1198 1085 1093 1187 1090 1302 1086 1303 1285 1300 1289 1087 1299 1182 1193 1078 1276 1189 1202 1269 1090 1303 1087 1294 1163 1198 1295 1355 1188 1196 1185 1293 1399 1414

Tree=0
num_leaves=11
num_cat=0
split_feature=0 24 27 20 6 26 11 8 10 5
split_gain=6.44727 7.09261 3.5917 4.03273 2.53875 1.45355 1.42914 1.23459 0.934796 0.0290574
threshold=6.5000000000000009 0.67263620735658614 1.1197473189203602 1.7167168986141219 0.045212598425377996 0.35695028681930524 0.66107209004401146 0.7597593245643538 0.50520392292741934 2.0008013832788372
decision_type=2 2 2 2 2 2 2 2 2 2
left_child=2 6 4 -4 -1 7 -2 8 -6 -7
right_child=1 -3 3 -5 5 9 -8 -9 -10 -11
leaf_value=0.42029573931916858 0.42793127355454197 0.4132620118408557 0.43090474479729701 0.41055675545224907 0.41184460301324088 0.40420159686167279 0.44236148237104866 0.4169959926431146 0.40099488364267738 0.39939152703317971
leaf_weight=27.50362229347229 24.447664260864258 42.783412456512451 30.559580326080322 30.559580326080322 30.559580326080322 24.447664260864258 24.447664260864258 30.559580326080322 24.447664260864258 24.447664260864258
leaf_count=9 8 14 10 10 10 8 8 10 8 8
internal_value=0.416179 0.425066 0.412499 0.420695 0.40938 0.407113 0.43541 0.410405 0.406849 0.401561
internal_weight=314.764 91.6787 223.085 61.1192 161.966 134.462 48.8953 85.5668 55.0072 48.8953
internal_count=103 30 73 20 53 44 16 28 18 16
is_linear=0
shrinkage=1


Tree=1
num_leaves=9
num_cat=0
split_feature=12 24 23 26 20 26 26 20
split_gain=7.39869 6.0971 7.8886 2.73732 3.82671 2.16622 0.668788 0.802865
threshold=0.50048132993038974 0.33955338067248481 0.83497813091743855 0.62447822876004566 1.3270974907840845 0.35695028681930524 -0.99790518522306215 0.99608634381144345
decision_type=2 2 2 2 2 2 2 2
left_child=1 2 -1 5 -5 6 -3 -8
right_child=-2 3 -4 4 -6 -7 7 -9
leaf_value=0.020705614249942848 0.021471566989485727 -0.010021591009214889 -0.0053676045343971556 -0.0056922370519420975 0.012436955939198116 -0.01791186456967479 0.0014465846091567009 -0.0065823608609410986
leaf_weight=40.071141242980957 24.803792238235474 33.429872274398804 33.574108123779297 45.645200490951538 30.643041372299194 27.135363340377808 33.565313339233398 45.726139307022095
leaf_count=13 8 11 11 15 10 9 11 15
internal_value=0.000720707 -0.00107555 0.00880912 -0.00447449 0.00157127 -0.00779465 -0.00525546 -0.00314568
internal_weight=314.594 289.79 73.6452 216.145 76.2882 139.857 112.721 79.2915
internal_count=103 95 24 71 25 46 37 26
is_linear=0
shrinkage=0.04


Tree=2
num_leaves=10
num_cat=0
split_feature=14 19 11 11 27 22 6 13 14
split_gain=7.89563 8.15625 2.09259 1.82547 2.29134 1.88963 1.87249 0.930552 0.232409
threshold=2.9991771273790655 1.5824286301259736 0.62646249531894893 0.99486809882444094 -0.96334757998456955 0.50083662365646275 1.9960306365964879 2.5000000000000004 2.0117046003305163
decision_type=2 2 2 2 2 2 2 2 2
left_child=3 -2 -3 4 5 -1 -5 -6 -9
right_child=1 2 -4 6 7 -7 -8 8 -10
leaf_value=0.0050096983892728656 0.020549478501688971 -0.0075684297593030039 0.0073595961790823925 -0.006319280633031792 -0.0065997106866763954 -0.0095293722980544955 0.009191179488663213 -0.017916526914072337 -0.011116518319675877
leaf_weight=33.509888410568237 47.156370878219604 36.420077800750732 24.696763515472412 24.155084609985352 42.770855665206909 24.072355985641479 24.485094308853149 27.201535224914551 23.958020925521851
leaf_count=11 15 12 8 8 14 8 8 9 8
internal_value=-0.000525672 0.00813918 -0.00146046 -0.00524148 -0.00740437 -0.00102923 0.00142124 -0.011244 -0.0149479
internal_weight=308.426 108.273 61.1168 200.153 151.513 57.5822 48.6402 93.9304 51.1596
internal_count=101 35 20 66 50 19 16 31 17
is_linear=0
shrinkage=0.04


Tree=3
num_leaves=12
num_cat=0
split_feature=12 24 11 17 27 9 29 22 4 10 22
split_gain=7.02462 4.63626 5.50958 3.37933 2.98103 2.78428 1.03103 1.07197 0.713334 0.430108 0.379481
threshold=0.50048132993038974 0.33955338067248481 0.50529467147097107 0.99804331043382777 1.2868598821359891 0.5941362271261631 11.500000000000002 0.49637493065982774 0.20310914112740394 0.74984482073773429 0.73279421851120852
decision_type=2 2 2 2 2 2 2 2 2 2 2
left_child=1 2 3 -1 6 -6 7 8 -3 -10 -9
right_child=-2 4 -4 -5 5 -7 -8 10 9 -11 -12
leaf_value=-0.0087330098205631382 0.020067869521562875 -0.00050764912272695608 0.021696458304284929 0.010663298521804396 -0.0050489705209107085 0.013163060063700667 -0.001173965401541463 -0.017630648820693914 -0.0050915284438902055 -0.012729325932235993 -0.0094676505112573622
leaf_weight=33.095524311065674 25.693291664123535 27.085154294967651 25.629333257675171 24.590541362762451 27.441094398498535 25.113747119903564 36.629601001739502 23.654691696166992 30.229439496994019 23.88037633895874 23.926465272903442
leaf_count=11 8 9 8 8 9 8 12 8 10 8 8
internal_value=0.000187116 -0.00152553 0.00645552 -0.000375384 -0.00460239 0.00362043 -0.0072422 -0.00892611 -0.00598334 -0.00862126 -0.0137502
internal_weight=326.969 301.276 83.3154 57.6861 217.961 52.5548 165.406 128.776 81.195 54.1098 47.5812
internal_count=107 99 27 19 72 17 55 43 27 18 16
is_linear=0
shrinkage=0.04


Tree=4
num_leaves=10
num_cat=0
split_feature=23 14 3 19 7 26 24 3 21
split_gain=6.23212 8.37169 5.62644 2.85757 1.96208 1.51958 1.56163 0.629866 0.54562
threshold=0.67221278623272762 2.9991771273790655 0.0011464883675665314 1.0000000180025095e-35 0.010872104419377613 0.35695028681930524 0.99950088731331455 0.18183226441693104 1.0000000180025095e-35
decision_type=2 2 2 2 2 2 2 2 2
left_child=1 3 -3 -1 -2 6 7 -6 -5
right_child=4 2 -4 8 5 -7 -8 -9 -10
leaf_value=0.0081791606514978882 0.0020418753618523197 0.0036082933363236697 0.029472925968578152 -0.0091621406163142835 0.0026661442112787112 -0.015832065273527166 -0.014296188932239265 -0.0053695041964521061 -0.0013698600320933615
leaf_weight=31.092382907867432 36.291651487350464 25.315410137176514 29.61840295791626 41.918483018875122 24.619523048400879 32.722569704055786 23.557183027267456 39.098133325576782 24.045403957366943
leaf_count=10 12 8 9 14 8 11 8 13 8
internal_value=-0.000386929 0.00535745 0.0177658 -0.00167974 -0.00599808 -0.00846124 -0.00557764 -0.00220578 -0.00641353
internal_weight=308.279 151.99 54.9338 97.0563 156.289 119.997 87.2748 63.7177 65.9639
internal_count=101 49 17 32 52 40 29 21 22
is_linear=0
shrinkage=0.04


Tree=5
num_leaves=11
num_cat=0
split_feature=22 6 1 5 23 6 17 6 0 13
split_gain=5.0156 5.10009 5.35109 4.39954 3.49601 2.35984 1.72526 1.38714 1.27099 0.533981
threshold=0.33308878659233704 1.6680937292171323 2.9994619323321019 2.9803795515567129 0.67221278623272762 0.99871505458379006 0.49470532852902904 0.67391993895297075 2.5000000000000004 5.5000000000000009
decision_type=2 2 2 2 2 2 2 2 2 2
left_child=1 4 3 -3 5 -1 8 -6 -2 -10
right_child=6 2 -4 -5 7 -7 -8 -9 9 -11
leaf_value=0.01478024861893777 -0.010922416381182663 -0.0065405920558194398 0.025681669237411841 0.016356141154451127 -0.0014556625233023035 -0.0020087028037861295 -0.014025064452135461 -0.014892066683617462 -0.0034567410999983643 0.0033177430756387823
leaf_weight=25.072693109512329 23.427055597305298 27.567009210586548 29.49076247215271 25.064415216445923 24.159815311431885 27.163945436477661 29.291254758834839 26.440738916397095 39.357672214508057 34.266675710678101
leaf_count=8 8 9 9 8 8 9 10 9 13 11
internal_value=0.000553169 0.00475617 0.0121611 0.00433943 -0.00114864 0.00603759 -0.00556277 -0.00863199 -0.00290895 -0.000248646
internal_weight=311.302 184.959 82.1222 52.6314 102.837 52.2366 126.343 50.6006 97.0514 73.6243
internal_count=102 60 26 17 34 17 42 17 32 24
is_linear=0
shrinkage=0.04


Tree=6
num_leaves=10
num_cat=0
split_feature=19 14 22 1 10 9 16 11 17
split_gain=5.48051 8.46257 6.54751 2.99447 1.61289 1.36811 1.56874 1.14726 0.325445
threshold=1.4954611319463151 2.9991771273790655 0.33308878659233704 1.0000000937490572 0.50520392292741934 0.19379135248462243 0.22604969231027253 0.50529467147097107 0.18693556424584526
decision_type=2 2 2 2 2 2 2 2 2
left_child=1 3 -3 -1 -5 -2 8 -6 -7
right_child=5 2 -4 4 7 6 -8 -9 -10
leaf_value=0.0071570172964115341 -0.013281766763487208 0.029199628222338493 0.0017134380349780292 0.003172219851665875 -0.013298912397721487 0.0031759891492004915 -0.011305392231050449 -0.0026837084897432233 -0.0031113065144805904
leaf_weight=42.650006771087646 38.08179759979248 30.601449728012085 25.728652715682983 24.067665815353394 38.182566165924072 27.535959005355835 29.171782255172729 30.579214572906494 24.209234237670898
leaf_count=14 13 9 8 8 13 9 10 10 8
internal_value=-0.000288184 0.0038792 0.0168413 -0.00152291 -0.00557069 -0.00702703 -0.00397076 -0.0086894 0.000156261
internal_weight=310.808 191.81 56.3301 135.479 92.8294 118.999 80.917 68.7618 51.7452
internal_count=102 62 17 45 31 40 27 23 17
is_linear=0
shrinkage=0.04


Tree=7
num_leaves=10
num_cat=0
split_feature=11 11 22 17 27 26 22 14 16
split_gain=6.31891 5.50256 4.17079 3.31051 2.26703 1.91092 1.06143 1.27166 0.676977
threshold=0.50529467147097107 0.73032152067012335 0.33308878659233704 0.99804331043382777 1.4101329099471271 0.35695028681930524 0.50083662365646275 2.0288135213239307 0.086177854170861587
decision_type=2 2 2 2 2 2 2 2 2
left_child=3 2 -2 5 -3 6 7 -1 -7
right_child=1 4 -4 -5 -6 8 -8 -9 -10
leaf_value=0.0061658883546655083 0.024403752778100741 -0.0071747341447794231 0.0035301001415837087 0.004351307201866968 0.0077819332509590344 -0.018017371265687646 -0.0096774183927526517 -0.0060629721304313244 -0.008713658409421017
leaf_weight=24.315561532974243 33.970961093902588 41.57938027381897 28.821450233459473 45.997821569442749 25.758731603622437 28.714798450469971 32.283419370651245 29.494094610214233 29.449693441390991
leaf_count=8 10 14 9 15 8 10 11 10 10
internal_value=-0.000249177 0.00651581 0.0149896 -0.0049022 -0.00137923 -0.00788524 -0.00399688 -0.000457439 -0.0134893
internal_weight=320.386 130.131 62.7924 190.255 67.3381 144.258 86.0931 53.8097 58.1645
internal_count=105 41 19 64 22 49 29 18 20
is_linear=0
shrinkage=0.04


Tree=8
num_leaves=9
num_cat=0
split_feature=0 24 22 6 20 27 6 22
split_gain=5.3305 6.23367 4.12876 2.91373 1.82806 1.15253 1.49234 1.04343
threshold=6.5000000000000009 0.67327364321894356 0.00193781730587746 1.9999999763917755 1.7167168986141219 -1.9948954734679194 1.5074109812451633 0.327675633068651
decision_type=2 2 2 2 2 2 2 2
left_child=2 7 3 4 -1 -4 -7 -2
right_child=1 -3 5 -5 -6 6 -8 -9
leaf_value=0.0047184646970968329 0.021233189959710522 -0.0050556372937646818 -0.0015084905721811132 0.013645823734365332 -0.0073484280803582614 -0.017335951075182304 -0.0061480148735968722 0.009734260754746038
leaf_weight=37.167250394821167 30.790462970733643 35.557524681091309 26.410041570663452 25.938433408737183 42.163393974304199 36.664451360702515 44.26222562789917 26.729563236236572
leaf_count=12 9 12 9 8 14 13 15 8
internal_value=1.33439e-05 0.00798442 -0.00346812 0.00212725 -0.00165071 -0.00897722 -0.0113412 0.0160885
internal_weight=305.683 93.0776 212.606 105.269 79.3306 107.337 80.9267 57.52
internal_count=100 29 71 34 26 37 28 17
is_linear=0
shrinkage=0.04


Tree=9
num_leaves=10
num_cat=0
split_feature=12 17 11 11 7 26 16 17 9
split_gain=6.52251 3.75106 3.71983 3.36094 3.22444 1.06624 0.888579 0.602618 0.565157
threshold=0.50048132993038974 0.99804331043382777 0.62646249531894893 0.73032152067012335 1.3395533806724851 0.35695028681930524 0.49392834684245135 1.0000000180025095e-35 0.33318795220796504
decision_type=2 2 2 2 2 2 2 2 2
left_child=1 2 5 -4 -3 7 -7 -1 -9
right_child=-2 4 3 -5 -6 6 -8 8 -10
leaf_value=-0.0014402912466599364 0.016959590386740296 0.011907190851007101 0.010547437174028021 -0.0062794238964114599 -0.0062973303691722261 -0.018280162830449264 -0.0074855449591543291 -0.013269970202716752 -0.0042676151208137286
leaf_weight=26.310425519943237 27.904302597045898 41.234546661376953 33.893373489379883 41.750604629516602 24.115192651748657 33.563936710357666 23.246555328369141 25.879500389099121 23.476440906524658
leaf_count=9 8 13 10 14 8 12 8 9 8
internal_value=-0.00126653 -0.00316844 -0.00579995 0.00122731 0.00513185 -0.00983211 -0.0140367 -0.00655135 -0.00915392
internal_weight=301.375 273.471 208.121 75.644 65.3497 132.477 56.8105 75.6664 49.3559
internal_count=99 91 70 24 21 46 20 26 17
is_linear=0
shrinkage=0.04


Tree=10
num_leaves=9
num_cat=0
split_feature=11 24 14 26 10 9 14 22
split_gain=4.83249 3.94142 2.90023 1.11929 0.963158 1.3365 0.7609 0.539754
threshold=0.50529467147097107 0.66110751225604103 1.0119486425310364 0.35695028681930524 0.9979889258553003 0.49527423459794068 2.0199046705806167 0.327675633068651
decision_type=2 2 2 2 2 2 2 2
left_child=2 -2 -1 6 -3 -6 -4 -5
right_child=1 4 3 7 5 -7 -8 -9
leaf_value=0.0049070386559936317 0.014580082697292048 -0.0051016958430216601 0.0010774077617256824 -0.0071314521360801931 -0.0028618597682944784 0.0099915803619565324 -0.0070041823425246695 -0.015124424938845584
leaf_weight=43.339803218841553 51.931720972061157 30.25060510635376 32.255723714828491 35.152932167053223 23.846700429916382 26.494872331619263 41.021282434463501 27.761672258377075
leaf_count=14 15 10 11 12 8 8 14 10
internal_value=0.00024801 0.00604119 -0.004011 -0.00688579 0.000433634 0.00385599 -0.00340935 -0.0108129
internal_weight=312.055 132.524 179.531 136.192 80.5922 50.3416 73.277 62.9146
internal_count=102 41 61 47 26 16 25 22
is_linear=0
shrinkage=0.04


Tree=11
num_leaves=9
num_cat=0
split_feature=11 24 14 10 26 11 26 26
split_gain=4.90618 5.66711 3.18836 1.78079 1.48797 1.18286 0.682365 0.676361
threshold=0.50529467147097107 0.67327364321894356 1.0119486425310364 0.81352984604709822 0.35695028681930524 0.99486809882444094 -0.99790518522306215 0.7468140836254592
decision_type=2 2 2 2 2 2 2 2
left_child=2 3 -1 -2 6 -3 -4 -6
right_child=1 5 4 -5 7 -7 -8 -9
leaf_value=0.0047715037649161303 0.0060638167910757055 -0.0089845232835244846 -0.0083566248686159344 0.019267276626999976 -0.017700549639362274 0.0016465168967914024 -0.0002304201754284264 -0.0082301049580409125
leaf_weight=43.580999374389648 30.584374666213989 26.518540620803833 28.520411729812622 39.51799488067627 24.43533992767334 42.546711683273315 40.957344055175781 31.643199682235718
leaf_count=14 9 9 10 11 9 14 14 11
internal_value=0.000103665 0.00566814 -0.00445447 0.0136472 -0.00769479 -0.00241315 -0.00365924 -0.0125474
internal_weight=308.305 139.168 169.137 70.1024 125.556 69.0653 69.4778 56.0785
internal_count=101 43 58 20 44 23 24 20
is_linear=0
shrinkage=0.04


Tree=12
num_leaves=10
num_cat=0
split_feature=1 19 7 20 27 2 20 16 14
split_gain=4.47182 3.36684 3.4462 3.63714 1.90166 1.09098 0.841728 0.540223 0.28578
threshold=4.9962031188530132 1.4954611319463151 1.4925830973192702 1.0096844755008172 -0.073752883840191949 0.75740337996745777 0.80953844909658679 0.0020137868547635343 2.0199046705806167
decision_type=2 2 2 2 2 2 2 2 2
left_child=1 2 3 5 -4 -1 -3 8 -8
right_child=-2 6 4 -5 -6 -7 7 -9 -10
leaf_value=0.005458477418032355 0.016250446085729883 -0.0010429821717488014 0.0022882119626164215 0.01446950438334689 -0.01198429069001678 -0.0053421533150751566 -0.002454644684570342 -0.01309034603429703 -0.0090885713674383386
leaf_weight=28.168148994445801 25.139235019683838 32.120492458343506 26.853827714920044 49.77046537399292 31.728429079055786 30.759804010391235 23.27719783782959 31.085649490356445 23.067095994949341
leaf_count=9 7 11 9 15 11 10 8 11 8
internal_value=0.000257343 -0.00120726 0.00234374 0.00656492 -0.00541014 -0.000109548 -0.00665191 -0.00890573 -0.00590372
internal_weight=301.97 276.831 167.281 108.698 58.5823 58.928 109.55 77.4299 46.3443
internal_count=99 92 54 34 20 19 38 27 16
is_linear=0
shrinkage=0.04


Tree=13
num_leaves=9
num_cat=0
split_feature=19 22 1 7 6 3 22 17
split_gain=5.75267 4.35202 3.94365 2.17802 1.98095 1.90793 1.00634 0.768532
threshold=1.4954611319463151 0.33308878659233704 2.9994619323321019 1.0058364621712281 2.0038801678112104 0.00019591382291417336 0.49637493065982774 1.0764684310995081e-20
decision_type=2 2 2 2 2 2 2 2
left_child=1 2 3 -1 6 -3 7 -2
right_child=4 5 -4 -5 -6 -7 -8 -9
leaf_value=0.01026829521018801 -0.00050948063740370217 -0.010970216022736498 0.022168949586989381 -0.0028084953454645661 0.0034447989341031063 0.0020632852809246999 -0.014666603402184482 -0.0092883428021757978
leaf_weight=50.142059087753296 27.087764501571655 28.053480386734009 29.142200708389282 33.151979446411133 25.496491432189941 47.201287984848022 32.96894383430481 42.424703121185303
leaf_count=15 9 10 8 11 8 15 12 15
internal_value=0.000144664 0.00461136 0.00958623 0.00503015 -0.00636746 -0.00278288 -0.00885238 -0.00595258
internal_weight=315.669 187.691 112.436 83.294 127.978 75.2548 102.481 69.5125
internal_count=103 59 34 26 44 25 36 24
is_linear=0
shrinkage=0.04


Tree=14
num_leaves=11
num_cat=0
split_feature=23 7 24 5 15 10 26 20 4 24
split_gain=5.96353 7.22326 5.17392 4.12449 1.75927 1.35171 0.984787 0.915854 0.854535 0.240032
threshold=0.67221278623272762 1.4925830973192702 0.67327364321894356 1.9892025116746266 0.60180978604899871 0.50432338529300991 1.0000000180025095e-35 1.3270974907840845 6.9222457059312246e-28 0.49828388219021574
decision_type=2 2 2 2 2 2 2 2 2 2
left_child=1 2 3 -1 5 -2 -3 -5 -6 -7
right_child=4 6 -4 7 8 9 -8 -9 -10 -11
leaf_value=0.027774136548249433 -0.0025781366277499366 -0.0013286323977149675 -0.0036064840472799274 0.0034249672333976208 0.0041412554317458161 -0.010674501714945895 -0.012313206984007624 0.014010881147989708 -0.0050455714230516445 -0.017733726436757281
leaf_weight=29.013099431991577 23.447070598602295 26.148911476135254 29.882843494415283 27.236223936080933 24.742244958877563 22.781509399414062 27.834556102752686 28.015184164047241 43.631376266479492 24.823782920837402
leaf_count=8 8 9 10 8 8 8 10 8 15 9
internal_value=-0.000211414 0.00484104 0.0105423 0.0155987 -0.00632817 -0.0107242 -0.00712686 0.00894181 -0.00165714 -0.0145847
internal_weight=307.557 168.131 114.147 84.2645 139.426 71.0524 53.9835 55.2514 68.3736 47.6053
internal_count=101 53 34 24 48 25 19 16 23 17
is_linear=0
shrinkage=0.04


Tree=15
num_leaves=9
num_cat=0
split_feature=0 24 23 22 17 19 0 10
split_gain=5.61123 4.19713 3.63701 1.40758 2.6576 1.29827 1.08184 0.984651
threshold=6.5000000000000009 0.67327364321894356 0.41769283200333307 0.49637493065982774 0.50434261894442101 2.1704773968670374 10.500000000000002 0.50657796782823195
decision_type=2 2 2 2 2 2 2 2
left_child=2 6 -1 4 5 -4 -2 -5
right_child=1 -3 3 7 -6 -7 -8 -9
leaf_value=0.0070237041401592613 0.020291218270924484 -0.0025490559455467392 0.0056601057162791093 -0.0050694150372666228 -0.011242743218511896 -0.0046322009769194849 0.0091683211725457105 -0.016487407780254794
leaf_weight=44.351656675338745 29.532195329666138 34.95795750617981 43.613500118255615 24.775907278060913 42.876181840896606 34.555105447769165 32.771582365036011 27.323333740234375
leaf_count=14 8 12 14 9 15 12 9 10
internal_value=0.000456274 0.00842917 -0.00310193 -0.00573145 -0.00329395 0.00105893 0.0146239 -0.0112334
internal_weight=314.757 97.2617 217.496 173.144 121.045 78.1686 62.3038 52.0992
internal_count=103 29 74 60 41 26 17 19
is_linear=0
shrinkage=0.04


Tree=16
num_leaves=11
num_cat=0
split_feature=12 23 24 22 26 9 20 20 20 19
split_gain=3.7875 3.38251 4.66518 1.66665 1.59847 1.51439 0.924827 0.815368 0.735936 0.491468
threshold=0.50048132993038974 0.67221278623272762 0.32822290696305961 0.33308878659233704 0.35695028681930524 0.49527423459794068 0.49566794253935731 1.0057419508594294 1.2810624854564401 0.5043320574606428
decision_type=2 2 2 2 2 2 2 2 2 2
left_child=1 2 -1 5 6 -4 -3 -8 -6 -5
right_child=-2 4 3 9 8 -7 7 -9 -10 -11
leaf_value=0.013838648055819648 0.013666594856402965 -0.0094046530795432581 -0.0039813387598818771 -0.0035172867280770181 -0.017623747849615252 0.0076541668261960521 0.0040924399981592382 -0.0049682223738144078 -0.0072761981156067223 -0.012291393400799001
leaf_weight=38.84274959564209 25.922055721282959 27.603879451751709 35.637076377868652 22.375861883163452 23.580264329910278 34.602350473403931 29.80289626121521 32.660484552383423 26.02943754196167 22.470321655273438
leaf_count=11 7 10 12 8 9 10 10 11 9 8
internal_value=-0.000821505 -0.0021353 0.00193266 -0.00209362 -0.00663776 0.00170775 -0.00336814 -0.000583448 -0.0124012 -0.00808884
internal_weight=319.527 293.605 153.928 115.086 139.677 70.2394 90.0673 62.4634 49.6097 44.8462
internal_count=105 98 49 38 49 22 31 21 18 16
is_linear=0
shrinkage=0.04


Tree=17
num_leaves=11
num_cat=0
split_feature=6 1 2 16 6 19 2 23 21 11
split_gain=4.69033 4.12452 5.55396 3.21602 2.72732 1.69197 1.04888 0.621527 0.672605 0.480326
threshold=1.5591050167452787 2.9994619323321019 0.99694895763568392 0.0010000571251923571 0.99871505458379006 1.4954611319463151 0.50453351453386119 0.50529786356620787 1.2360144161341831 0.0040004991533393675
decision_type=2 2 2 2 2 2 2 2 2 2
left_child=4 2 6 -3 5 9 -2 -6 -9 -1
right_child=1 3 -4 -5 7 -7 -8 8 -10 -11
leaf_value=0.00075683350383311341 -0.01565486876925222 0.0016524563237172449 0.011373813727861969 0.019523067140705511 -0.0049554183043963949 -0.0066401680604882534 -0.003909536248973138 -0.01668852874611846 -0.00677598994525335 0.0085026147680269358
leaf_weight=26.94543981552124 21.819289207458496 27.662084341049194 35.544548511505127 40.273679733276367 29.948878765106201 33.828316926956177 30.459981679916382 29.085872888565063 21.959098100662231 26.501726627349854
leaf_count=9 8 8 11 11 10 12 10 11 8 8
internal_value=0 0.00500503 -0.000684761 0.0123702 -0.00461223 0.000255323 -0.00898922 -0.00987577 -0.0126089 0.00471493
internal_weight=324.029 155.76 87.8238 67.9358 168.269 87.2755 52.2793 80.9938 51.045 53.4472
internal_count=106 48 29 19 58 29 18 29 19 17
is_linear=0
shrinkage=0.04


Tree=18
num_leaves=11
num_cat=0
split_feature=12 19 7 22 10 7 4 15 21 20
split_gain=4.66613 2.81568 3.31572 2.34042 1.69624 1.55821 1.11355 1.07924 0.557765 0.369338
threshold=0.50048132993038974 1.4954611319463151 1.4925830973192702 0.33308878659233704 0.92777813029753331 0.01739625759224564 2.3059509172210299e-18 0.60180978604899871 0.50568341760347313 1.0013274383358721
decision_type=2 2 2 2 2 2 2 2 2 2
left_child=1 2 3 5 -4 -1 -7 8 -3 -9
right_child=-2 7 4 -5 -6 6 -8 9 -10 -11
leaf_value=0.00024330326756468658 0.016393768739320774 -0.0066865383097267743 -1.0882884706097275e-05 -0.0037967677595663503 -0.013602601336305189 0.018006738404641131 0.0066396285307328282 -0.00060806149907119867 -0.01591714531329368 -0.0071730697260735856
leaf_weight=25.657017469406128 23.93465518951416 24.842255353927612 32.439465045928955 32.73231053352356 27.281018018722534 28.175135850906372 31.418288469314575 37.615728139877319 23.302675247192383 22.661841630935669
leaf_count=8 6 9 11 11 10 8 9 13 9 8
internal_value=-0.000369839 -0.00181224 0.00126938 0.00516919 -0.00634755 0.00866043 0.0121855 -0.00688233 -0.0113542 -0.00318075
internal_weight=310.06 286.126 177.703 117.983 59.7205 85.2504 59.5934 108.423 48.1449 60.2776
internal_count=102 96 57 36 21 25 17 39 18 21
is_linear=0
shrinkage=0.04


Tree=19
num_leaves=11
num_cat=0
split_feature=6 7 8 10 11 14 11 2 14 13
split_gain=4.233 5.55963 3.25989 2.61158 2.11755 1.61004 1.25886 0.799323 0.689176 0.619734
threshold=1.5591050167452787 1.4925830973192702 1.0061102903217058 0.66690383949068233 0.62646249531894893 1.0119486425310364 0.50408547021784422 0.80022447247916639 2.0288135213239307 2.5000000000000004
decision_type=2 2 2 2 2 2 2 2 2 2
left_child=3 2 -2 5 -4 -1 8 -6 -7 -5
right_child=1 -3 4 9 7 6 -8 -9 -10 -11
leaf_value=0.0081291934528829376 0.016802628570777217 -0.012810558899115141 -0.0059705795046340908 -0.0059165502778318014 0.0030793115113859843 -0.0026184328581381065 0.0037576000251762975 0.01237071499723009 -0.012261573570957173 -0.014178564011687734
leaf_weight=25.432981014251709 43.298885107040405 24.161184072494507 26.415440320968628 29.179200649261475 34.627987146377563 28.142058849334717 25.152232646942139 28.22519850730896 22.380215167999268 37.13191294670105
leaf_count=8 12 9 9 10 10 10 8 8 8 14
internal_value=-0.000106797 0.00459734 0.0078363 -0.00453496 0.00337334 -0.000436382 -0.00340211 0.0073796 -0.00704682 -0.0106743
internal_weight=324.147 156.729 132.568 167.419 89.2686 101.107 75.6745 62.8532 50.5223 66.3111
internal_count=106 48 39 58 27 34 26 18 18 24
is_linear=0
shrinkage=0.04


Tree=20
num_leaves=9
num_cat=0
split_feature=12 11 24 23 26 11 14 9
split_gain=3.35026 2.9902 3.35326 3.04434 2.15835 1.14136 1.1109 0.811996
threshold=0.50048132993038974 0.50529467147097107 0.67327364321894356 1.0000000180025095e-35 0.35695028681930524 0.99486809882444094 2.0199046705806167 0.49492916938060344
decision_type=2 2 2 2 2 2 2 2
left_child=1 3 -3 -1 6 -4 -5 -6
right_child=-2 2 5 4 7 -7 -8 -9
leaf_value=0.0086508034599236967 0.01250992181542821 0.011306699474017362 -0.0086639508649148534 0.0019948792047069877 -0.01780201908954639 0.0019002416572874571 -0.0072219441455474787 -0.0080941426537805491
leaf_weight=23.555779933929443 31.808433055877686 52.304806470870972 25.74516487121582 43.690631866455078 25.662745714187622 42.044865131378174 38.572336912155151 38.069234132766724
leaf_count=7 8 14 9 15 10 14 14 14
internal_value=0.000282111 -0.00106619 0.00373571 -0.00449193 -0.00666206 -0.00208729 -0.00229599 -0.0121736
internal_weight=321.454 289.646 120.095 169.551 145.995 67.79 82.263 63.732
internal_count=105 97 37 60 53 23 29 24
is_linear=0
shrinkage=0.04


Tree=21
num_leaves=11
num_cat=0
split_feature=23 7 5 4 26 9 24 26 6 15
split_gain=4.25111 5.48148 4.62473 1.34484 1.31498 1.80866 0.831446 0.775511 0.59319 0.479573
threshold=0.67221278623272762 1.4925830973192702 1.9892025116746266 0.00026476376144202347 0.35695028681930524 0.49527423459794068 0.99950088731331455 1.0000000180025095e-35 1.9960306365964879 0.33848115200319556
decision_type=2 2 2 2 2 2 2 2 2 2
left_child=1 2 -1 8 5 6 -2 -3 -4 -6
right_child=4 7 3 -5 9 -7 -8 -9 -10 -11
leaf_value=0.019867942831090987 -0.0033579057879470947 -0.0021436256406364394 0.0024579377880700076 -0.0036151730965097908 -0.0067653239437643056 0.0031578120784033631 -0.013666944885225882 -0.012711733090973879 0.010645006564632971 -0.015411745520380365
leaf_weight=37.906233549118042 34.272135257720947 22.859858512878418 30.229848623275757 29.899091958999634 28.048570871353149 46.670892715454102 21.11420464515686 23.820402383804321 29.850039482116699 20.600345611572266
leaf_count=10 12 8 9 9 10 15 8 9 8 8
internal_value=-0.000297768 0.00393301 0.0082234 0.00319091 -0.0052216 -0.00256642 -0.00744657 -0.00769875 0.00664591 -0.0106276
internal_weight=325.272 174.565 127.885 89.979 150.706 102.057 55.3863 46.6803 60.0799 48.6489
internal_count=106 53 36 26 53 35 20 17 17 18
is_linear=0
shrinkage=0.04


Tree=22
num_leaves=10
num_cat=0
split_feature=6 24 7 10 18 24 21 23 20
split_gain=3.72308 4.14168 2.11449 2.07831 2.02717 1.47208 0.967641 0.757083 0.732037
threshold=1.5591050167452787 0.32822290696305961 1.3395533806724851 0.66690383949068233 1.4865047302943146 0.67263620735658614 1.0014050213050529 0.50529786356620787 1.3534587918437897
decision_type=2 2 2 2 2 2 2 2 2
left_child=3 -2 4 6 -3 -6 8 -5 -1
right_child=1 2 -4 7 5 -7 -8 -9 -10
leaf_value=0.0068380042359764874 0.01800692898088287 0.011885296416834236 -0.0098579606947417873 -0.0044372600307510659 0.0049943896824038384 -0.006925301111890078 -0.0062600439772339776 -0.01361092060435984 -0.0017555124690764017
leaf_weight=32.679202556610107 30.287462472915649 33.703964471817017 20.881514310836792 28.926113128662109 38.358291387557983 28.401568651199341 26.988170862197876 33.715434312820435 28.986120939254761
leaf_count=10 8 9 8 10 11 10 10 13 10
internal_value=0.000457504 0.00489083 0.0015238 -0.00396084 0.00396623 -3.09043e-05 0 -0.00950681 0.0027526
internal_weight=302.928 151.633 121.345 151.295 100.464 66.7599 88.6535 62.6415 61.6653
internal_count=99 46 38 53 30 21 30 23 20
is_linear=0
shrinkage=0.04


Tree=23
num_leaves=10
num_cat=0
split_feature=0 24 2 4 10 14 23 16 2
split_gain=4.19151 3.61164 2.56679 2.88198 2.84987 1.2299 1.00812 0.381165 0.297198
threshold=6.5000000000000009 0.74749763864043717 0.99398480314199633 1.9812074884257283e-30 0.74984482073773429 2.0158510025878402 0.66368189632170715 0.00096015418755026618 0.50453351453386119
decision_type=2 2 2 2 2 2 2 2 2
left_child=2 6 4 -4 5 7 -2 -1 -6
right_child=1 -3 3 -5 8 -7 -8 -9 -10
leaf_value=0.0045965245385528345 0.0058798664331610297 -0.0053071784528469449 -0.005189857064029994 0.011742299019486889 -0.016120383525410519 -0.0087348977774658922 0.015762411766269767 -0.0017588343732281998 -0.0092687317417361609
leaf_weight=27.543069362640381 35.467901229858398 30.684694051742554 33.161352396011353 30.061935186386108 35.281640529632568 29.506853580474854 35.595494031906128 31.200916528701782 23.467850685119629
leaf_count=9 9 11 11 9 14 11 9 11 8
internal_value=-0.000617088 0.00601415 -0.00385224 0.00282738 -0.00675204 -0.00212914 0.0109614 0.00116711 -0.0135523
internal_weight=311.972 101.748 210.224 63.2233 147 88.2508 71.0634 58.744 58.7495
internal_count=102 29 73 20 53 31 18 20 22
is_linear=0
shrinkage=0.04


Tree=24
num_leaves=9
num_cat=0
split_feature=0 27 10 2 5 6 11 22
split_gain=2.45992 2.10995 2.05654 1.63378 1.40676 0.86571 0.717113 0.681662
threshold=6.5000000000000009 3.4816398195852618 0.66690383949068233 0.50453351453386119 1.9903732532259504 1.9840384556358093 0.73032152067012335 0.00193781730587746
decision_type=2 2 2 2 2 2 2 2
left_child=1 2 7 -4 -2 -5 -6 -1
right_child=4 -3 3 5 6 -7 -8 -9
leaf_value=0.0035563771824228822 0.01098617293636691 0.0077343074952326242 -0.015274326725276535 -0.0089977026213068235 0.0043640594887427685 -0.00014053498755126425 -0.0046329037576922213 -0.0038522253227284689
leaf_weight=40.744252920150757 32.107625484466553 22.905256509780884 37.401168584823608 37.595229625701904 32.765200614929199 34.684101343154907 24.051492214202881 37.843922138214111
leaf_count=13 9 7 15 14 9 11 8 14
internal_value=-0.00118755 -0.00354618 -0.00495664 -0.00848271 0.00435742 -0.00483261 0.00047851 0
internal_weight=300.098 211.174 188.269 109.68 88.9243 72.2793 56.8167 78.5882
internal_count=100 74 67 40 26 25 17 27
is_linear=0
shrinkage=0.04


Tree=25
num_leaves=11
num_cat=0
split_feature=23 7 5 7 1 26 27 24 18 14
split_gain=3.90318 4.40195 3.63065 1.65114 1.70673 1.18367 1.10616 1.03178 0.907679 0.200537
threshold=0.67221278623272762 1.4925830973192702 1.9892025116746266 0.010872104419377613 3.9983736407213226 1.0000000180025095e-35 -1.9948954734679194 0.67263620735658614 2.0062183946920782 2.9991771273790655
decision_type=2 2 2 2 2 2 2 2 2 2
left_child=1 2 -1 -2 6 -3 -5 9 -8 -4
right_child=3 5 7 4 -6 -7 8 -9 -10 -11
leaf_value=0.018331376019119553 0.0035913542319944668 0 0.0036985099175473502 -0.0025428053352225116 0.001311215697506663 -0.01234225802543241 -0.017014049030123803 -0.0025284146053452211 -0.0066858133166870139 0.0088113949566353319
leaf_weight=39.451306819915771 32.155695199966431 26.059273481369019 26.914219379425049 28.016997575759888 31.894038200378418 22.625668048858643 32.465858697891235 27.993324279785156 27.87631630897522 33.185726404190063
leaf_count=10 11 9 8 10 10 9 13 9 10 8
internal_value=0.000328493 0.00438795 0.00829812 -0.00433828 -0.00649787 -0.00575479 -0.00935317 0.00368162 -0.0124026 0.00663713
internal_weight=328.638 176.23 127.545 152.409 120.253 48.6849 88.3592 88.0933 60.3422 60.0999
internal_count=107 53 35 54 43 18 33 25 23 16
is_linear=0
shrinkage=0.04


Tree=26
num_leaves=10
num_cat=0
split_feature=6 22 1 2 6 20 29 19 3
split_gain=3.83718 3.88926 3.05385 3.7966 1.80463 1.75924 1.59201 0.626468 0.45816
threshold=1.5074109812451633 0.36607122196001241 2.9994619323321019 0.99694895763568392 0.045212598425377996 0.80953844909658679 11.500000000000002 0.66325024229709595 1.0000000180025095e-35
decision_type=2 2 2 2 2 2 2 2 2
left_child=4 2 3 -2 -1 -3 7 -6 -9
right_child=1 5 -4 -5 6 -7 -8 8 -10
leaf_value=0.003341649104877044 -0.0060397882569638659 0.0019467948465824449 0.018599132007096369 0.014121820284638559 -0.003963258635343336 -0.012015682927159599 0.0013886851464913258 -0.0088423402154274352 -0.017150224807217628
leaf_weight=37.678382873535156 29.443791151046753 40.120051145553589 38.133213996887207 29.099082708358765 25.533190011978149 21.663316488265991 28.011619091033936 37.058207511901855 19.377616882324219
leaf_count=12 10 13 9 8 9 8 9 14 8
internal_value=0.000506958 0.00483428 0.00983455 0.00394864 -0.00411053 -0.00294185 -0.00670335 -0.00950884 -0.0118907
internal_weight=306.118 158.459 96.6761 58.5429 147.659 61.7834 109.981 81.969 56.4358
internal_count=100 48 27 18 52 21 40 31 22
is_linear=0
shrinkage=0.04


Tree=27
num_leaves=10
num_cat=0
split_feature=12 23 24 9 26 16 9 16 13
split_gain=2.86003 2.44553 3.34172 1.79657 1.48765 0.749053 0.994813 0.733545 0.254054
threshold=0.50048132993038974 0.67221278623272762 0.33955338067248481 0.99402489961184803 0.35695028681930524 0.36855791588182046 0.49492916938060344 1.0000000180025095e-35 6.5000000000000009
decision_type=2 2 2 2 2 2 2 2 2
left_child=1 2 -1 4 7 6 -4 -3 -9
right_child=-2 3 5 -5 -6 -7 -8 8 -10
leaf_value=0.010273871364821845 0.010513094761216391 -0.010166526628125701 -0.0038923932126304723 0.0019329343164492621 -0.016342476147262541 -0.0072638047151755173 0.0058679781797597213 0.0005753246644829385 -0.0049757922092054565
leaf_weight=50.132688999176025 33.932257413864136 29.811970472335815 40.444895267486572 38.31071138381958 26.178051233291626 32.35274600982666 27.711911678314209 25.232104063034058 24.616956472396851
leaf_count=13 8 11 14 13 11 12 8 9 9
internal_value=-0.000381461 -0.00166471 0.00187725 -0.00538754 -0.00807159 -0.00230139 3.16538e-05 -0.00521874 -0.00210873
internal_weight=328.724 294.792 150.642 144.15 105.839 100.51 68.1568 79.661 49.8491
internal_count=108 100 47 53 40 34 22 29 18
is_linear=0
shrinkage=0.04


Tree=28
num_leaves=11
num_cat=0
split_feature=22 7 19 5 18 0 10 6 20 24
split_gain=3.28122 2.63813 3.29823 2.80872 1.80453 1.63635 1.45829 1.29644 0.963665 0.464757
threshold=0.4954183635158913 1.4925830973192702 1.4954611319463151 1.9903732532259504 1.9850162331389065 7.5000000000000009 0.50520392292741934 1.9960306365964879 0.37519390462249219 0.74749763864043717
decision_type=2 2 2 2 2 2 2 2 2 2
left_child=1 2 3 -1 -4 8 -3 -5 -2 -6
right_child=5 6 4 7 9 -7 -8 -9 -10 -11
leaf_value=0.019209308072493613 -0.0051183934660817719 0.00076485630181413918 -0.0080811095318252396 0 0.0070966647371527381 0.00028995426959206393 -0.013581119398066872 0.010577642034119731 -0.016268448028991109 -0.00040507157201206934
leaf_weight=32.411241054534912 27.572646617889404 23.056592226028442 34.631649255752563 40.085903167724609 27.909849166870117 35.520370006561279 20.818921804428101 35.173262119293213 25.628689527511597 22.828387260437012
leaf_count=8 10 8 13 12 8 11 8 9 11 8
internal_value=0.000268991 0.002738 0.0047616 0.00940459 -0.00106833 -0.00625762 -0.00602849 0.00503036 -0.0106657 0.00367237
internal_weight=325.638 236.916 193.04 107.67 85.3699 88.7217 43.8755 75.2592 53.2013 50.7382
internal_count=106 74 58 29 29 32 16 21 21 16
is_linear=0
shrinkage=0.04


Tree=29
num_leaves=9
num_cat=0
split_feature=12 24 23 20 2 20 0 9
split_gain=2.6001 2.49134 3.04966 1.40662 1.56 1.25085 0.650857 0.363426
threshold=0.50048132993038974 0.33955338067248481 0.99702439394237918 1.3270974907840845 0.49543867741486919 0.80953844909658679 3.5000000000000004 0.49527423459794068
decision_type=2 2 2 2 2 2 2 2
left_child=1 2 -1 5 -5 6 -3 -7
right_child=-2 3 -4 4 -6 7 -8 -9
leaf_value=0.0094266358989521272 0.010046672455153902 -0.0073808287485149305 -0.0055203764285426827 -0.0061697822190175788 0.0065651301123235096 -0.012889735545292927 0.00091524322915903522 -0.0066997957717101391
leaf_weight=58.425534248352051 34.469199419021606 23.047345638275146 33.937041044235229 26.806982040405273 34.535292387008667 35.912887573242188 40.211571216583252 37.022493124008179
leaf_count=15 8 9 12 10 10 14 14 14
internal_value=-0.000243367 -0.00149582 0.00389139 -0.0040384 0.00093032 -0.0063008 -0.00207874 -0.00986916
internal_weight=324.368 289.899 92.3626 197.537 61.3423 136.194 63.2589 72.9354
internal_count=106 98 27 71 20 51 23 28
is_linear=0
shrinkage=0.04


Tree=30
num_leaves=11
num_cat=0
split_feature=23 7 5 26 22 17 9 26 29 20
split_gain=2.83992 3.5343 3.58506 1.53764 1.22996 1.15175 1.2478 0.992388 0.741005 0.431155
threshold=0.67221278623272762 1.4925830973192702 1.9892025116746266 0.35695028681930524 0.29623709981856378 1.0000000180025095e-35 0.49527423459794068 1.0000000180025095e-35 6.5000000000000009 1.2810624854564401
decision_type=2 2 2 2 2 2 2 2 2 2
left_child=1 2 -1 5 8 -2 -7 -3 -4 -5
right_child=3 7 4 9 -6 6 -8 -9 -10 -11
leaf_value=0.016360470481525689 0.0036867877763563403 -0.00021407025926723351 0.009885263143222963 -0.015169338498331979 -0.004521084933101765 -0.011580895614652158 0.00081010862214225918 -0.011275895855471988 0.00072122039200501098 -0.0065405057430775165
leaf_weight=41.625017881393433 38.817360639572144 28.708698034286499 29.280543088912964 19.510702013969421 29.086886882781982 25.329312801361084 24.939871311187744 24.411941289901733 28.936119556427002 24.564478635787964
leaf_count=10 13 10 8 8 9 10 8 10 8 9
internal_value=-5.43683e-05 0.00317658 0.00676079 -0.00449677 0.00207114 -0.00140158 -0.00540717 -0.00542995 0.0054434 -0.0105773
internal_weight=315.211 182.049 128.929 133.162 87.3035 89.0865 50.2692 53.1206 58.2167 44.0752
internal_count=103 55 35 48 25 31 18 20 16 17
is_linear=0
shrinkage=0.04


Tree=31
num_leaves=9
num_cat=0
split_feature=23 23 7 18 9 23 17 26
split_gain=2.8231 3.93247 2.19419 2.05694 1.49116 1.25718 0.914922 0.750699
threshold=0.67221278623272762 0.66368189632170715 1.4925830973192702 1.4865047302943146 0.49527423459794068 0.99917556990409417 1.0764684310995081e-20 1.9746951612165828
decision_type=2 2 2 2 2 2 2 2
left_child=1 2 3 7 6 -6 -2 -1
right_child=4 -3 -4 -5 5 -7 -8 -9
leaf_value=0.012716876492546311 -0.00268466338043713 0.017779543081799135 -0.0066025152823466614 -0.0037526575633057913 -0.0067028972044030641 0.0043580196806974579 -0.012057592255929542 0.0041012948144701841
leaf_weight=32.830941438674927 32.909401178359985 27.285589694976807 39.763619422912598 32.641321897506714 24.873756647109985 45.984935760498047 37.155458211898804 36.46818470954895
leaf_count=8 12 6 15 10 9 15 15 10
internal_value=0.000515655 0.00400785 0.00127474 0.00440368 -0.00364312 0.000399455 -0.00776204 0.00830215
internal_weight=309.913 168.99 141.704 101.94 140.924 70.8587 70.0649 69.2991
internal_count=100 49 43 28 51 24 27 18
is_linear=0
shrinkage=0.04


Tree=32
num_leaves=11
num_cat=0
split_feature=6 10 14 2 8 21 20 20 13 28
split_gain=2.99756 2.79377 1.91479 4.57213 2.28713 1.36981 0.57999 0.527361 0.491786 0.459212
threshold=1.5074109812451633 0.66690383949068233 2.9991771273790655 0.99694895763568392 1.0091078405202827 0.33588644014501745 1.7167168986141219 1.0057419508594294 2.5000000000000004 2020.0000000000002
decision_type=2 2 2 2 2 2 2 2 2 2
left_child=1 5 3 7 -4 6 -1 -2 -3 -6
right_child=2 8 4 -5 9 -7 -8 -9 -10 -11
leaf_value=0.0064953998393578382 -0.0048631512119329109 -0.0069750211470926563 0.016087370840374017 0.01119891178830907 -0.00075328088089268968 -0.0064014298566125484 -0.0014227240884529626 -0.013714803380064016 -0.015510640598254783 0.0061837947406612002
leaf_weight=34.627975702285767 27.094966650009155 22.305927515029907 29.706065654754639 28.0211021900177 31.625980615615845 39.162189960479736 24.115768432617188 21.282439947128296 30.269296646118164 27.369848728179932
leaf_count=10 10 8 7 8 10 15 8 8 13 7
internal_value=-0.000583794 -0.00466992 0.00311921 -0.00147643 0.00710834 -0.000617299 0.00319272 -0.00893952 -0.0120644 0.00242272
internal_weight=315.582 150.481 165.1 76.3985 88.7019 97.9059 58.7437 48.3774 52.5752 58.9958
internal_count=104 54 50 26 24 33 18 18 21 17
is_linear=0
shrinkage=0.04


Tree=33
num_leaves=10
num_cat=0
split_feature=22 6 23 6 6 29 29 6 19
split_gain=2.82369 2.73572 1.74986 1.50503 1.48253 1.28546 1.2852 0.968737 0.613607
threshold=0.49171133940114969 1.6754401048380132 0.67221278623272762 0.67391993895297075 1.992975529242565 6.5000000000000009 11.500000000000002 0.99871505458379006 1.3396370270765405
decision_type=2 2 2 2 2 2 2 2 2
left_child=1 2 7 -4 -3 -6 8 -1 -2
right_child=6 4 3 -5 5 -7 -8 -9 -10
leaf_value=0.0073699867643578446 -0.0042326724402772823 0.014103908699218109 -0.0005017276079549044 -0.015460715402892835 0.010303526727921094 -0.00088181695676367382 0 -0.0026544284925018886 -0.012541720911956895
leaf_weight=32.031073570251465 28.540961503982544 35.002703189849854 22.944845676422119 20.835037231445312 27.541682004928589 38.165438175201416 44.309414625167847 28.201968431472778 34.18211030960083
leaf_count=9 11 9 8 9 8 11 14 9 14
internal_value=1.1136e-05 0.00277507 -0.00174191 -0.0078053 0.00746528 0.0037886 -0.00522661 0.00262734 -0.00888749
internal_weight=311.755 204.723 104.013 43.7799 100.71 65.7071 107.032 60.233 62.7231
internal_count=102 63 35 17 28 19 39 18 25
is_linear=0
shrinkage=0.04


Tree=34
num_leaves=10
num_cat=0
split_feature=6 16 6 22 3 9 25 23 21
split_gain=3.24827 2.07603 2.06157 2.03661 1.67485 1.19724 1.26176 0.763701 0.698613
threshold=1.5591050167452787 0.25714320704044741 0.99871505458379006 0.36607122196001241 0.0019639796597316623 0.49855770524164389 0.20158510025878404 0.50529786356620787 1.2360144161341831
decision_type=2 2 2 2 2 2 2 2 2
left_child=2 3 5 4 -2 6 -1 -4 -9
right_child=1 -3 7 -5 -6 -7 -8 8 -10
leaf_value=0.0018364965090042215 0.010666930838296871 0.011204607935897228 -0.0034334392852218946 -0.0079406384901192558 -0.00069365989524743598 0.0075856686602290288 -0.010107872778148357 -0.016150688962259133 -0.0055383175582164592
leaf_weight=38.483192205429077 37.689275741577148 49.903331756591797 34.43199348449707 27.507887721061707 44.045788049697876 27.403728485107422 21.429253816604614 24.799950122833252 20.018657207489014
leaf_count=13 10 13 12 10 13 8 8 11 8
internal_value=0.000386947 0.00447747 -0.00349911 0.00133095 0.00452924 0.000701498 -0.00241781 -0.00815276 -0.0116122
internal_weight=325.713 159.146 166.567 109.243 81.7351 87.3162 59.9124 79.2506 44.8186
internal_count=106 46 60 33 23 29 21 31 19
is_linear=0
shrinkage=0.04


Tree=35
num_leaves=11
num_cat=0
split_feature=22 8 5 20 4 22 19 0 4 9
split_gain=2.604 2.50857 3.10145 1.6587 1.36517 1.27407 1.47381 0.858199 0.791016 0.69873
threshold=0.33308878659233704 1.0000000180025095e-35 1.9892025116746266 0.80953844909658679 0.00026476376144202347 0.5033471909248266 1.113974911053871 2.5000000000000004 0.99999997588603218 0.49492916938060344
decision_type=2 2 2 2 2 2 2 2 2 2
left_child=1 8 -3 5 7 -2 -7 -4 -1 -5
right_child=3 2 4 9 -6 6 -8 -9 -10 -11
leaf_value=-0.0082690511952317781 0.0069580329625793689 0.016524311355043095 0.00052448413704078917 -0.016935806502233666 -0.0050995447799761159 0.00020292719995060782 -0.012248775623416275 0.0089483732884854915 0.001110282335511922 -0.0059222940669516342
leaf_weight=31.751169919967651 22.091314792633057 32.641169548034668 37.067961454391479 17.921775102615356 27.536807298660278 43.650140762329102 22.341760396957397 42.743821859359741 24.575777530670166 23.453007698059082
leaf_count=12 7 8 12 8 9 14 9 11 8 9
internal_value=1.53329e-05 0.00292902 0.00580345 -0.00436662 0.00244501 -0.00119247 -0.00401288 0.00511339 -0.00413264 -0.0109337
internal_weight=325.775 196.317 139.99 129.458 107.349 88.0832 65.9919 79.8118 56.3269 41.3748
internal_count=107 60 40 47 32 30 23 23 20 17
is_linear=0
shrinkage=0.04


Tree=36
num_leaves=12
num_cat=0
split_feature=6 7 8 6 0 16 9 23 14 1 16
split_gain=2.89913 3.16225 3.66186 2.11476 1.50317 1.69209 1.42109 1.3061 1.30435 0.707365 0.0214509
threshold=1.5074109812451633 1.4925830973192702 0.96336169521669379 0.99871505458379006 3.5000000000000004 0.32724985181178906 0.49855770524164389 0.50529786356620787 2.0158510025878402 3.9983736407213226 0.0020137868547635343
decision_type=2 2 2 2 2 2 2 2 2 2 2
left_child=3 2 -2 6 -4 9 8 -5 -1 -6 -9
right_child=1 -3 4 7 5 -7 -8 10 -10 -11 -12
leaf_value=0.0010664100396063126 0.019696042365544925 -0.0087121160091263479 0.01006251589907484 -0.0032148580668233989 -0.0090148144589815189 0.0067115956840051163 0.0072325981381196345 -0.011833518467414188 -0.011615000298493995 0 -0.01687484427439858
leaf_weight=32.272935152053833 23.91721510887146 29.445549726486206 31.777418375015259 31.570755481719971 26.593981981277466 35.847372531890869 27.767324686050415 21.160523772239685 20.586690425872803 28.134836673736572 17.546004414558411
leaf_count=11 5 12 9 11 9 9 8 9 8 8 8
internal_value=-0.000378453 0.00309661 0.00552264 -0.00444818 0.00265063 0 0 -0.00949382 -0.00386008 -0.00440171 -0.0144069
internal_weight=326.621 175.716 146.271 150.904 122.354 90.5762 80.627 70.2773 52.8596 54.7288 38.7065
internal_count=107 52 40 55 35 26 27 28 19 17 17
is_linear=0
shrinkage=0.04


Tree=37
num_leaves=10
num_cat=0
split_feature=6 14 2 5 10 22 29 23 22
split_gain=3.39023 1.39134 4.30653 2.18397 1.13689 1.00707 1.06551 0.966977 0.47729
threshold=1.5591050167452787 2.9991771273790655 0.99694895763568392 2.0085311842914062 0.66690383949068233 0.00193781730587746 11.500000000000002 0.67221278623272762 0.33308878659233704
decision_type=2 2 2 2 2 2 2 2 2
left_child=4 2 -2 -3 5 -1 -7 -6 -5
right_child=1 3 -4 8 7 6 -8 -9 -10
leaf_value=0.0030931056143011838 -0.0095114306491828182 0.016355601137648765 0.010988844633376382 0.0062070483797261053 -0.002912676733690465 -0.011067361598027164 0.00077040193357853564 -0.013115242902191357 -0.00050997747277988707
leaf_weight=45.061427116394043 35.621752738952637 29.48236608505249 29.51179838180542 36.550811767578125 30.999029397964478 23.821337223052979 23.050261259078979 31.20218288898468 29.155289888381958
leaf_count=14 13 6 8 9 11 10 8 14 9
internal_value=0.0002217 0.00429952 -0.000148926 0.00737009 -0.00399415 -0.00110462 -0.00521473 -0.00815819 0.00318479
internal_weight=314.456 160.322 65.1336 95.1885 154.134 91.933 46.8716 62.2012 65.7061
internal_count=102 45 21 24 57 32 18 25 18
is_linear=0
shrinkage=0.04


Tree=38
num_leaves=10
num_cat=0
split_feature=2 10 15 17 6 3 20 14 9
split_gain=2.21461 2.02122 1.45392 1.19424 1.68293 1.08393 0.865524 0.719182 0.452872
threshold=0.50453351453386119 0.99900546498297449 0.33848115200319556 0.077371654992081929 1.7838268637927903 0.0019639796597316623 0.99976072939420801 2.0199046705806167 1.0000000180025095e-35
decision_type=2 2 2 2 2 2 2 2 2
left_child=1 2 -1 6 -5 -6 -2 -4 -3
right_child=3 8 7 4 5 -7 -8 -9 -10
leaf_value=0.0048195728936686532 0.0027573158932124664 -0.016893589110754292 3.3930922506258309e-06 -0.0016730417762825332 0.01401112177366047 0.0033105746440678053 -0.0063731314506576325 -0.0088783479973550111 -0.00722606954888031
leaf_weight=38.633504629135132 35.128017663955688 17.659908652305603 23.959479093551636 33.250368237495422 35.099949598312378 29.099209785461426 30.183699131011963 33.540011644363403 19.5937579870224
leaf_count=12 10 8 9 11 8 8 11 13 8
internal_value=-0.00039949 -0.00422383 -0.00109206 0.00271348 0.00551631 0.00928583 -0.00141789 -0.00514032 -0.0120779
internal_weight=296.148 133.387 96.133 162.761 97.4495 64.1992 65.3117 57.4995 37.2537
internal_count=98 50 34 48 27 16 21 22 16
is_linear=0
shrinkage=0.04


Tree=39
num_leaves=10
num_cat=0
split_feature=11 13 24 20 6 27 7 6 23
split_gain=2.30415 2.50328 2.25035 1.37714 1.3112 1.23031 1.16481 0.83018 1.02481
threshold=0.50529467147097107 2.5000000000000004 0.67263620735658614 1.0096844755008172 2.0038801678112104 1.0000000482279363 1.4925830973192702 1.5074109812451633 0.66368189632170715
decision_type=2 2 2 2 2 2 2 2 2
left_child=1 6 3 -2 -4 7 -1 8 -3
right_child=2 5 4 -5 -6 -7 -8 -9 -10
leaf_value=0.0059765666622293781 0.0019148375888884714 -0.0021029698825175761 -0.0085511254444707672 0.012412979580931571 0.0029618361404644528 -0.017038839796064745 -0.0050992981735936346 0.00073912476392924838 -0.013550661206554722
leaf_weight=44.621233224868774 38.342961072921753 25.058581590652466 29.019381761550903 44.298431158065796 33.056335926055908 18.593757629394531 22.11779522895813 23.086013317108154 27.052442669868469
leaf_count=14 10 9 10 10 11 8 8 8 12
internal_value=-0.000324601 -0.00363082 0.0033152 0.0076311 -0.00238168 -0.00783751 0.00223583 -0.00541197 -0.00819415
internal_weight=305.247 160.53 144.717 82.6414 62.0757 93.7908 66.739 75.197 52.111
internal_count=100 59 41 20 21 37 22 29 21
is_linear=0
shrinkage=0.04


Tree=40
num_leaves=11
num_cat=0
split_feature=22 7 23 6 27 8 26 6 0 9
split_gain=2.09556 1.85598 2.13476 1.88006 1.65728 1.56574 1.31042 0.932405 0.921351 0.528073
threshold=0.4954183635158913 1.4925830973192702 0.67221278623272762 1.6680937292171323 -0.073752883840191949 0.7597593245643538 0.35695028681930524 1.9960306365964879 3.5000000000000004 0.50262490350026146
decision_type=2 2 2 2 2 2 2 2 2 2
left_child=1 2 5 6 -3 -1 -4 -7 -2 -10
right_child=8 4 3 -5 -6 7 -8 -9 9 -11
leaf_value=0.013007322794606422 -0.011478544239965954 0.0015160575810522943 0.00017189325095202538 0.0046009397311325686 -0.012815237417296272 -0.0024020703151134966 -0.013020751462625284 0.0072627760586211152 0.00075233819654226637 -0.0068970595913689101
leaf_weight=42.271532773971558 29.784520864486694 25.970802307128906 21.757295370101929 43.888329029083252 24.177552938461304 27.787156581878662 24.918724656105042 35.108825206756592 30.831952333450317 25.253712177276611
leaf_count=10 13 9 8 13 10 8 11 8 11 9
internal_value=-0.00043851 0.0014286 0.00320079 -0.00126193 -0.00537268 0.00706948 -0.00684977 0.00294453 -0.00580843 -0.00265178
internal_weight=331.75 245.88 195.732 90.5643 50.1484 105.168 46.676 62.896 85.8702 56.0857
internal_count=110 77 58 32 19 26 19 16 33 20
is_linear=0
shrinkage=0.04


Tree=41
num_leaves=12
num_cat=0
split_feature=1 26 11 6 24 16 29 6 3 2 3
split_gain=2.11519 2.08315 1.4491 2.00328 1.88196 1.56641 0.956116 0.868844 0.592341 0.542362 0.244535
threshold=5.0190693857891064 2.991053645540501 0.50529467147097107 0.045212598425377996 0.67263620735658614 0.25714320704044741 11.500000000000002 1.3685286518381778 0.22471167464558242 0.84726704407712861 0.33031725887966557
decision_type=2 2 2 2 2 2 2 2 2 2 2
left_child=1 2 3 -1 5 -4 7 10 -9 -6 -5
right_child=-2 -3 4 6 9 -7 -8 8 -10 -11 -12
leaf_value=0.0032276981612778021 0.0098796554115697308 0.0099475083231561606 -0.0014492908204934646 -0.01069942620766127 -0.001117769884080008 0.011039004900045873 -0.0010174839195096728 -0.010309698555595537 -0.001129685245398243 -0.0092534323723326376 -0.019033039636042814
leaf_weight=32.669981479644775 27.941306829452515 22.509410381317139 28.495774507522583 18.479918003082275 32.250636100769043 34.640671968460083 25.708934783935547 26.079372048377991 21.595534443855286 23.433288097381592 16.277654767036438
leaf_count=10 6 6 8 8 11 8 10 10 8 9 8
internal_value=-0.000500016 -0.00155776 -0.00258781 -0.00532862 0.000635449 0.00537262 -0.0079533 -0.010049 -0.0062893 -0.00466455 -0.0149302
internal_weight=310.082 282.141 259.632 140.811 118.82 63.1364 108.141 82.4325 47.6749 55.6839 34.7576
internal_count=102 96 90 54 36 16 44 34 18 20 16
is_linear=0
shrinkage=0.04


Tree=42
num_leaves=12
num_cat=0
split_feature=23 23 24 26 4 10 14 20 0 22 23
split_gain=2.37535 2.38333 1.29057 0.870507 0.948433 0.479298 0.735319 0.469726 0.463993 0.711232 0.253711
threshold=0.67221278623272762 0.66368189632170715 0.32822290696305961 0.35695028681930524 6.9222457059312246e-28 0.74984482073773429 2.0199046705806167 1.2810624854564401 9.5000000000000018 0.4954183635158913 0.49663646919115939
decision_type=2 2 2 2 2 2 2 2 2 2 2
left_child=1 2 -1 4 -2 6 -6 -5 9 10 -4
right_child=3 -3 8 7 5 -7 -8 -9 -10 -11 -12
leaf_value=0.0074352566284906088 0.0040943482330939411 0.014049999066343855 -0.0025282029780211565 -0.013386658048524359 0.0025199861036934012 -0.0091793795909369466 -0.007588283234967113 -0.0043456979744059239 0.0028824206606595615 -0.0079452934216798238 0.0029002884511148612
leaf_weight=36.349112033843994 28.130877733230591 25.623343944549561 30.300419330596924 20.178832292556763 24.783547163009644 23.267402648925781 20.18668270111084 21.019387722015381 31.414931535720825 27.518826842308044 24.361146926879883
leaf_count=9 9 5 10 9 9 9 8 8 8 11 8
internal_value=-0.000178296 0.0028888 0.000914569 -0.0041179 -0.00196356 -0.00453074 -0.00196309 -0.00897729 -0.00116035 -0.00276224 -3.20008e-05
internal_weight=313.135 175.568 149.944 137.567 96.3685 68.2376 44.9702 41.1982 113.595 82.1804 54.6616
internal_count=103 51 46 52 35 26 17 17 37 29 18
is_linear=0
shrinkage=0.04


end of trees

feature_importances:
home_goals_for=34
away_clean_sheet_rate=27
away_scoring_rate=27
delta_points_per_match=24
away_goals_against=23
away_home_match_share=23
home_home_match_share=20
away_effective_sample_size=19
home_goals_against=18
home_clean_sheet_rate=17
home_scoring_rate=17
home_matches_considered=13
home_win_rate=13
away_goals_for=13
away_draw_rate=12
away_loss_rate=11
home_points_per_match=10
delta_goal_difference=10
home_effective_sample_size=9
home_draw_rate=8
home_loss_rate=8
home_sample_confidence=8
match_month=7
home_goal_difference=6
away_matches_considered=6
away_goal_difference=6
away_win_rate=4
away_points_per_match=4
away_sample_confidence=1
match_year=1

parameters:
[boosting: gbdt]
[objective: poisson]
[metric: poisson,l1]
[tree_learner: serial]
[device_type: cpu]
[data_sample_strategy: bagging]
[data: ]
[valid: ]
[num_iterations: 43]
[learning_rate: 0.04]
[num_leaves: 15]
[num_threads: 1]
[seed: 20260719]
[deterministic: 0]
[force_col_wise: 0]
[force_row_wise: 0]
[histogram_pool_size: -1]
[max_depth: -1]
[min_data_in_leaf: 8]
[min_sum_hessian_in_leaf: 0.001]
[bagging_fraction: 0.9]
[pos_bagging_fraction: 1]
[neg_bagging_fraction: 1]
[bagging_freq: 1]
[bagging_seed: 20260719]
[bagging_by_query: 0]
[feature_fraction: 0.85]
[feature_fraction_bynode: 1]
[feature_fraction_seed: 20260719]
[extra_trees: 0]
[extra_seed: 4884]
[early_stopping_round: 0]
[early_stopping_min_delta: 0]
[first_metric_only: 0]
[max_delta_step: 0]
[lambda_l1: 0.1]
[lambda_l2: 0.5]
[linear_lambda: 0]
[min_gain_to_split: 0]
[drop_rate: 0.1]
[max_drop: 50]
[skip_drop: 0.5]
[xgboost_dart_mode: 0]
[uniform_drop: 0]
[drop_seed: 3802]
[top_rate: 0.2]
[other_rate: 0.1]
[min_data_per_group: 100]
[max_cat_threshold: 32]
[cat_l2: 10]
[cat_smooth: 10]
[max_cat_to_onehot: 4]
[top_k: 20]
[monotone_constraints: ]
[monotone_constraints_method: basic]
[monotone_penalty: 0]
[feature_contri: ]
[forcedsplits_filename: ]
[refit_decay_rate: 0.9]
[cegb_tradeoff: 1]
[cegb_penalty_split: 0]
[cegb_penalty_feature_lazy: ]
[cegb_penalty_feature_coupled: ]
[path_smooth: 0]
[interaction_constraints: ]
[verbosity: -1]
[saved_feature_importance_type: 0]
[use_quantized_grad: 0]
[num_grad_quant_bins: 4]
[quant_train_renew_leaf: 0]
[stochastic_rounding: 1]
[linear_tree: 0]
[max_bin: 255]
[max_bin_by_feature: ]
[min_data_in_bin: 3]
[bin_construct_sample_cnt: 200000]
[data_random_seed: 4429]
[is_enable_sparse: 1]
[enable_bundle: 1]
[use_missing: 1]
[zero_as_missing: 0]
[feature_pre_filter: 1]
[pre_partition: 0]
[two_round: 0]
[header: 0]
[label_column: ]
[weight_column: ]
[group_column: ]
[ignore_column: ]
[categorical_feature: ]
[forcedbins_filename: ]
[precise_float_parser: 0]
[parser_config_file: ]
[objective_seed: 30213]
[num_class: 1]
[is_unbalance: 0]
[scale_pos_weight: 1]
[sigmoid: 1]
[boost_from_average: 1]
[reg_sqrt: 0]
[alpha: 0.9]
[fair_c: 1]
[poisson_max_delta_step: 0.7]
[tweedie_variance_power: 1.5]
[lambdarank_truncation_level: 30]
[lambdarank_norm: 1]
[label_gain: ]
[lambdarank_position_bias_regularization: 0]
[eval_at: ]
[multi_error_top_k: 1]
[auc_mu_weights: ]
[num_machines: 1]
[local_listen_port: 12400]
[time_out: 120]
[machine_list_filename: ]
[machines: ]
[gpu_platform_id: -1]
[gpu_device_id: -1]
[gpu_use_dp: 0]
[num_gpu: 1]

end of parameters

pandas_categorical:null
